-2.729338407516479492e-01
-5.658830702304840088e-02
1.845127791166305542e-01
1.500586986541748047e+00
-4.413720667362213135e-01
-2.332565635442733765e-01
-7.010221481323242188e-01
-1.122676581144332886e-01
4.294322431087493896e-02
8.718016743659973145e-02
1.967541128396987915e-01
4.779824018478393555e-01
-7.043999433517456055e-01
3.612658679485321045e-01
2.397147864103317261e-01
2.416023612022399902e-01
-4.127613902091979980e-01
-1.095306754112243652e+00
1.548285484313964844e-01
6.491941213607788086e-02
-2.992534637451171875e-01
-1.069807782769203186e-01
-4.413905143737792969e-01
4.318136349320411682e-02
-3.436042070388793945e-01
-3.316161334514617920e-01
2.855385839939117432e-01
3.261262476444244385e-01
2.718935310840606689e-01
-1.850389689207077026e-02
-1.222163960337638855e-01
-3.513747751712799072e-01
4.627374932169914246e-02
1.386159956455230713e-01
-4.878333210945129395e-02
-1.234960854053497314e-01
-5.867518484592437744e-02
7.198305428028106689e-02
-8.490236997604370117e-01
-7.504837960004806519e-02
-5.671577155590057373e-02
8.061117678880691528e-02
-3.659009039402008057e-01
3.603357672691345215e-01
-8.664762377738952637e-01
1.439020931720733643e-01
3.509506583213806152e-01
3.145406842231750488e-01
5.657110735774040222e-02
5.105825066566467285e-01
9.503980726003646851e-02
-1.282787770032882690e-01
-6.138108670711517334e-02
2.961747534573078156e-02
1.047058582305908203e+00
-9.180012345314025879e-01
-1.195867508649826050e-01
-4.724326431751251221e-01
-7.580122947692871094e-01
6.515067070722579956e-03
-9.478780627250671387e-02
-1.260912716388702393e-01
9.950257837772369385e-02
3.166091442108154297e-01
1.115365847945213318e-01
1.790639609098434448e-01
1.047496125102043152e-01
4.582430124282836914e-01
1.095638871192932129e+00
9.109014272689819336e-02
-8.904274106025695801e-01
-4.661047160625457764e-01
-1.101049542427062988e+00
4.287729784846305847e-02
-2.783747389912605286e-02
-9.807915985584259033e-02
1.507872641086578369e-01
2.071909606456756592e-02
-5.105508118867874146e-02
1.539460420608520508e-01
2.560200393199920654e-01
-2.536632120609283447e-02
2.088639885187149048e-02
-5.708841681480407715e-01
3.023983538150787354e-01
1.779806986451148987e-02
-4.160890355706214905e-02
1.305041551589965820e+00
2.036869674921035767e-01
9.376639723777770996e-01
-5.663018226623535156e-01
-1.124253049492835999e-01
-9.155757725238800049e-02
2.990070283412933350e-01
-6.272039413452148438e-01
2.889524102210998535e-01
1.268685888499021530e-02
-2.495229244232177734e-01
1.091546490788459778e-01
-7.629072759300470352e-03
