1.220957189798355103e-01 -5.735021457076072693e-02 2.270359545946121216e-01 2.935231328010559082e-01 -7.684998959302902222e-02 -1.315262019634246826e-01 -1.793965846300125122e-01 -2.590230703353881836e-01 -1.490513533353805542e-01 -1.593129709362983704e-02 -7.844566553831100464e-02 1.318781673908233643e-01 9.082868695259094238e-01 -2.132849991321563721e-01 -2.150954455137252808e-01 5.539888516068458557e-02 4.335015267133712769e-02 -2.232376337051391602e-01 -1.853011846542358398e-01 -7.848397642374038696e-02 -2.197014540433883667e-02 -4.601700231432914734e-02 9.042295068502426147e-02 -1.735841929912567139e-01 2.209015749394893646e-02 1.682034507393836975e-02 -6.920490413904190063e-02 -1.314733326435089111e-01 9.530094265937805176e-02 -1.903529763221740723e-01 2.164963399991393089e-03 -1.227374821901321411e-01 8.267286419868469238e-02 3.246234729886054993e-02 1.451131701469421387e-01 6.770624965429306030e-02 1.765293329954147339e-01 -6.712317466735839844e-03 1.126074194908142090e-01 2.112967669963836670e-01 1.758055388927459717e-01 -2.251102589070796967e-03 7.048065960407257080e-02 4.323279112577438354e-02 3.561125323176383972e-02 3.267715126276016235e-02 -1.064181998372077942e-01 -1.886725723743438721e-01 -4.684520661830902100e-01 9.903205931186676025e-02 -1.947683095932006836e-02 1.631354093551635742e-01 2.547499835491180420e-01 5.323507264256477356e-02 1.303258240222930908e-01 2.543750964105129242e-02 4.260410554707050323e-03 1.240501999855041504e-01 -5.876701325178146362e-02 -1.316326018422842026e-02
1.115244626998901367e-02 -8.382423222064971924e-02 -1.056055724620819092e-01 1.039832830429077148e-03 -9.829697757959365845e-02 3.675204515457153320e-02 -2.492555975914001465e-02 1.243207007646560669e-01 8.368720114231109619e-02 3.758926689624786377e-02 -7.074735313653945923e-02 -8.588531613349914551e-02 7.603421807289123535e-02 -7.897765934467315674e-02 7.334057986736297607e-02 -2.105216681957244873e-02 3.492240607738494873e-02 -1.078542321920394897e-02 -1.606225967407226562e-03 -8.126597851514816284e-02 -5.910992622375488281e-03 -7.127135992050170898e-03 -1.363307237625122070e-03 9.458339214324951172e-02 4.297782480716705322e-02 -1.024528592824935913e-02 9.046609699726104736e-02 -1.316085457801818848e-03 8.233176171779632568e-02 1.327255368232727051e-02 -1.004896163940429688e-01 -1.593902707099914551e-02 2.907571196556091309e-02 3.137911856174468994e-02 -6.978324055671691895e-02 1.545818150043487549e-02 -6.113001704216003418e-02 4.533092677593231201e-02 1.098072528839111328e-02 -2.736035734415054321e-02 3.541737794876098633e-02 6.170696020126342773e-02 1.473532617092132568e-02 -3.392609953880310059e-02 -7.402762770652770996e-02 1.815271377563476562e-02 8.502574265003204346e-02 -2.658978104591369629e-03 1.278157085180282593e-01 -2.477369457483291626e-02 -8.648324757814407349e-02 9.787587821483612061e-02 -8.469566702842712402e-02 3.807187080383300781e-03 1.174494624137878418e-02 -9.844276309013366699e-02 -1.935750991106033325e-02 9.407481551170349121e-02 1.028124839067459106e-01 6.191840767860412598e-02
-9.034290164709091187e-02 -9.215301834046840668e-03 -1.018502563238143921e-01 -3.072408214211463928e-02 -2.226892672479152679e-02 -6.542280316352844238e-02 -8.211708068847656250e-02 -7.730388641357421875e-02 -1.092158854007720947e-01 7.170972973108291626e-02 8.885338157415390015e-02 -4.723177850246429443e-02 1.301839053630828857e-01 1.071375161409378052e-01 6.836897879838943481e-02 -4.939622059464454651e-02 -6.618319451808929443e-02 9.778290055692195892e-03 1.169290617108345032e-01 1.212287396192550659e-01 -9.613239020109176636e-02 -1.258003897964954376e-02 8.445935696363449097e-02 -6.856162101030349731e-02 9.877409040927886963e-02 -3.253979142755270004e-03 -6.957086920738220215e-02 -1.356602758169174194e-01 1.013390347361564636e-02 5.991414189338684082e-02 -6.635323166847229004e-02 1.038377056829631329e-03 4.355489462614059448e-02 4.756716266274452209e-02 -5.067107826471328735e-02 -1.903883665800094604e-01 6.763476878404617310e-02 1.731473356485366821e-01 -3.703593462705612183e-02 -1.182653531432151794e-01 -8.470615744590759277e-02 7.662662863731384277e-02 6.945942342281341553e-02 -1.070581451058387756e-01 -1.275681424885988235e-02 -1.952586509287357330e-02 1.868867501616477966e-02 -1.263889074325561523e-01 8.629200607538223267e-02 -8.504161983728408813e-02 -5.489849299192428589e-02 -5.962389335036277771e-02 -7.659351080656051636e-02 -4.779952019453048706e-02 8.254770189523696899e-02 -1.177418008446693420e-01 -1.884089969098567963e-02 -5.348874256014823914e-03 5.146842449903488159e-04 -1.049229130148887634e-01
5.451680719852447510e-02 -1.821140646934509277e+00 -3.211841732263565063e-02 -5.215991735458374023e-01 6.232169270515441895e-01 3.416100442409515381e-01 1.226083517074584961e+00 2.605178654193878174e-01 1.914772093296051025e-01 4.785181879997253418e-01 4.126862585544586182e-01 3.383872210979461670e-01 -1.646486818790435791e-01 -1.803074002265930176e+00 3.423586785793304443e-01 -1.532363295555114746e-01 -2.354050800204277039e-02 -3.445833027362823486e-01 1.184467077255249023e+00 8.212574720382690430e-01 5.967184901237487793e-02 5.802316665649414062e-01 -6.603234261274337769e-02 3.967188596725463867e-01 -1.625523716211318970e-01 -7.099581360816955566e-01 3.022182881832122803e-01 -6.620635837316513062e-02 -1.603177189826965332e-01 -3.410198539495468140e-02 1.220961689949035645e+00 4.604119658470153809e-01 4.755221307277679443e-01 5.903635025024414062e-01 5.157406926155090332e-01 1.346254348754882812e-01 -4.297630116343498230e-02 -3.103311955928802490e-01 -6.362307071685791016e-01 -2.226897478103637695e-01 -9.586658328771591187e-03 1.681884676218032837e-01 4.513647258281707764e-01 -3.774124011397361755e-02 1.184083335101604462e-02 -7.916840165853500366e-02 6.454602479934692383e-01 9.224516749382019043e-01 1.578228920698165894e-01 1.566290706396102905e-01 1.671660542488098145e-01 5.682690739631652832e-01 6.226832270622253418e-01 5.267097949981689453e-01 -2.448135763406753540e-01 -6.595738977193832397e-02 1.635792702436447144e-01 -2.339709736406803131e-02 -1.228664964437484741e-01 9.019941091537475586e-01
1.312662661075592041e-01 1.687310487031936646e-01 9.184616208076477051e-01 4.263674318790435791e-01 2.236451767385005951e-02 1.234459429979324341e-01 -7.330227643251419067e-02 -2.773690223693847656e-01 2.312739938497543335e-01 4.855858385562896729e-01 3.406375348567962646e-01 5.751367807388305664e-01 -8.371555805206298828e-01 -1.836033761501312256e-01 -1.284808963537216187e-01 3.340181410312652588e-01 1.402575224637985229e-01 -2.077936679124832153e-01 -1.742496490478515625e-01 -3.976833224296569824e-01 4.546948522329330444e-02 5.411098599433898926e-01 7.432650327682495117e-01 3.331022858619689941e-01 1.192456483840942383e-01 -2.737677991390228271e-01 -3.924154043197631836e-01 -3.137156367301940918e-02 -1.279106736183166504e-01 -2.461540997028350830e-01 -1.142135784029960632e-01 -1.003161519765853882e-01 1.281340122222900391e-01 1.187400445342063904e-01 2.398198843002319336e-02 2.449458241462707520e-01 -3.033861219882965088e-01 -3.797558546066284180e-01 -1.248047724366188049e-01 -2.159177213907241821e-01 -1.832820475101470947e-01 -3.581866025924682617e-01 -5.964531004428863525e-02 8.052220940589904785e-02 1.566582471132278442e-01 4.964879155158996582e-01 1.599119752645492554e-01 4.547576606273651123e-02 9.878320991992950439e-02 1.149634793400764465e-01 -1.651997268199920654e-01 -2.907907366752624512e-01 -3.123258650302886963e-01 2.288715094327926636e-01 2.221917659044265747e-01 9.878093749284744263e-02 2.615709602832794189e-01 5.431007742881774902e-01 3.428605198860168457e-01 5.458481907844543457e-01
1.097746267914772034e-01 -2.439559400081634521e-01 1.479910314083099365e-01 -6.590727251023054123e-03 -2.652105391025543213e-01 -3.721992485225200653e-03 1.784586906433105469e-01 1.848489791154861450e-01 2.045729756355285645e-02 -2.196777313947677612e-01 -2.834401726722717285e-01 -7.460781931877136230e-02 -9.936211258172988892e-02 -2.106194645166397095e-01 1.579996049404144287e-01 1.378044039011001587e-01 -1.470927745103836060e-01 3.892317041754722595e-02 -1.849811151623725891e-02 -3.057048283517360687e-02 2.727901190519332886e-02 -2.415886074304580688e-01 -2.908647954463958740e-01 5.164316669106483459e-02 3.292720615863800049e-01 4.540029466152191162e-01 1.097687929868698120e-01 -6.303029507398605347e-02 -2.762937359511852264e-02 1.003241166472434998e-01 -5.755568295717239380e-02 2.536523044109344482e-01 2.691786289215087891e-01 -6.604002416133880615e-02 4.584207013249397278e-02 2.279713898897171021e-01 -1.625538468360900879e-01 7.752971351146697998e-02 7.993414998054504395e-02 1.878124475479125977e-01 2.091331873089075089e-03 2.168197184801101685e-01 5.836396291851997375e-02 1.378677338361740112e-01 2.090702503919601440e-01 -1.718084700405597687e-02 -4.842799901962280273e-02 -9.545555710792541504e-02 -1.299955509603023529e-02 3.234663307666778564e-01 3.179737627506256104e-01 1.619887202978134155e-01 1.453384160995483398e-01 1.421707216650247574e-02 1.483806222677230835e-01 3.454686999320983887e-01 4.442328214645385742e-01 1.473935097455978394e-01 3.728516027331352234e-02 -2.403988391160964966e-01
4.195947647094726562e-01 -6.581842303276062012e-01 -1.699000298976898193e-01 -3.566763103008270264e-01 -1.199647411704063416e-01 -1.256902813911437988e-01 -8.530253171920776367e-02 -2.094405591487884521e-01 -2.421088069677352905e-01 4.160557687282562256e-02 -3.788640797138214111e-01 -6.422055959701538086e-01 -1.206198453903198242e+00 -2.049136012792587280e-01 2.123706936836242676e-01 2.536571323871612549e-01 4.752353131771087646e-01 -1.836958676576614380e-01 -3.846003860235214233e-02 -2.193653881549835205e-01 -1.187983378767967224e-01 -5.133413895964622498e-02 -1.558174639940261841e-01 3.039109334349632263e-02 -1.822505891323089600e-01 2.661161422729492188e-01 3.977218270301818848e-01 -1.392671316862106323e-01 1.177703589200973511e-01 3.730457276105880737e-02 -4.812217354774475098e-01 -6.100900173187255859e-01 -3.573013842105865479e-01 -8.565539866685867310e-02 9.467516094446182251e-02 2.972250990569591522e-02 7.920315265655517578e-01 2.005916684865951538e-01 5.715791583061218262e-01 4.757865965366363525e-01 1.428359299898147583e-01 4.567154124379158020e-02 -2.339957356452941895e-01 -1.944807767868041992e-01 6.873415410518646240e-02 -7.605176419019699097e-02 6.222997978329658508e-02 3.937461078166961670e-01 8.599603921175003052e-02 2.189957052469253540e-01 3.181353211402893066e-01 4.503775238990783691e-01 6.871292591094970703e-01 7.065235078334808350e-02 -4.428361952304840088e-01 -5.186907052993774414e-01 -2.909583747386932373e-01 9.590660780668258667e-02 4.217272996902465820e-02 3.795413374900817871e-01
2.276627905666828156e-02 1.081737726926803589e-01 -1.115059405565261841e-01 -1.223540827631950378e-01 -8.721497654914855957e-02 -8.026284724473953247e-02 -5.270157009363174438e-02 1.117698475718498230e-01 8.124229311943054199e-02 7.374027371406555176e-02 -8.231297135353088379e-02 -9.978483617305755615e-02 1.511094570159912109e-01 3.131063655018806458e-02 2.640582025051116943e-01 2.127076089382171631e-01 -8.472857065498828888e-03 -8.783930540084838867e-02 -3.472098335623741150e-02 4.237035289406776428e-02 -1.478818356990814209e-01 -1.096602156758308411e-01 7.117872685194015503e-02 6.009550392627716064e-02 1.976924203336238861e-02 -4.137371107935905457e-02 -5.475093424320220947e-02 1.518036127090454102e-01 2.338574230670928955e-01 4.121423885226249695e-02 -1.006755232810974121e-02 2.271983027458190918e-02 -7.971636950969696045e-02 -8.361906558275222778e-02 9.922399371862411499e-02 6.450406461954116821e-02 3.653093799948692322e-02 -1.449805945158004761e-01 -1.881051212549209595e-01 -1.944902837276458740e-01 -8.169573545455932617e-02 8.572185412049293518e-03 -4.584622569382190704e-03 -7.447016239166259766e-02 -3.869613260030746460e-02 -1.171579286456108093e-01 4.539876803755760193e-02 -8.575534820556640625e-02 -2.693744003772735596e-01 -1.772382706403732300e-01 -1.443854421377182007e-01 3.108685137704014778e-03 -4.147279262542724609e-02 -7.119047641754150391e-02 -1.667043566703796387e-01 -1.950227171182632446e-01 -1.956189982593059540e-02 -1.477764546871185303e-01 -2.363397181034088135e-02 -1.455307155847549438e-01
-1.550389379262924194e-01 5.055713281035423279e-02 -3.120706602931022644e-02 -6.300922483205795288e-02 -9.891750663518905640e-02 -7.440675050020217896e-02 1.366799771785736084e-01 1.624492183327674866e-02 -1.092334240674972534e-01 2.567432262003421783e-02 1.879689544439315796e-01 -1.333308815956115723e-01 -4.840610083192586899e-03 3.908054530620574951e-02 -1.108905747532844543e-01 -3.052324801683425903e-02 -1.227735579013824463e-01 3.311230987310409546e-02 5.769112706184387207e-02 1.221782341599464417e-01 -1.404994130134582520e-01 8.173894882202148438e-02 1.356778200715780258e-02 -7.943318039178848267e-02 9.788657724857330322e-02 -5.764717236161231995e-02 5.193123966455459595e-02 -1.334049850702285767e-01 -4.619179293513298035e-02 -4.699359834194183350e-02 4.846089705824851990e-02 9.651092439889907837e-02 5.264372099190950394e-03 1.305339932441711426e-01 -7.208823412656784058e-02 -1.526833623647689819e-01 6.192841380834579468e-02 6.114898249506950378e-02 3.900099545717239380e-02 -1.708191931247711182e-01 -5.985237285494804382e-02 2.386049181222915649e-02 -8.857551217079162598e-02 -7.489607669413089752e-03 -5.016867537051439285e-03 -2.879053913056850433e-02 1.117308661341667175e-01 -3.732262179255485535e-02 1.923869103193283081e-01 6.223212182521820068e-02 -1.434624791145324707e-01 -1.635088622570037842e-01 -2.849107421934604645e-02 -3.552485257387161255e-02 -8.278913795948028564e-02 -6.512534618377685547e-02 7.340916991233825684e-02 3.281372040510177612e-02 -2.913656644523143768e-02 5.763529241085052490e-02
-1.461017131805419922e+00 1.062367781996726990e-01 -2.799158096313476562e-01 -2.188263833522796631e-01 2.750127017498016357e-01 -4.868702888488769531e-01 1.912491768598556519e-01 -1.370427012443542480e-01 3.777628764510154724e-02 -4.752586036920547485e-02 -4.413869231939315796e-02 -1.760183572769165039e-01 6.936908364295959473e-01 3.146584033966064453e-01 -3.992827534675598145e-01 -1.542050689458847046e-01 -8.269873261451721191e-02 -2.133897393941879272e-01 -2.351678162813186646e-02 1.964965909719467163e-01 -1.177699025720357895e-02 -9.489652700722217560e-03 -4.686400759965181351e-03 -3.799519538879394531e-01 -7.139856219291687012e-01 -7.478456944227218628e-02 4.327606782317161560e-02 -2.549731135368347168e-01 -3.388466313481330872e-02 -2.813372015953063965e-01 9.895944967865943909e-04 -6.601572036743164062e-02 -1.859489269554615021e-02 1.346831675618886948e-02 1.895820051431655884e-01 -2.851187288761138916e-01 6.421252489089965820e-01 -1.464069038629531860e-01 1.672001481056213379e-01 8.356434851884841919e-02 -2.022974193096160889e-01 5.013759732246398926e-01 1.287060678005218506e-01 1.656347662210464478e-01 -2.726401388645172119e-02 -4.788377787917852402e-03 1.357752829790115356e-01 -1.770687103271484375e-01 3.187900409102439880e-02 -1.007957011461257935e-01 1.731547266244888306e-01 1.711293160915374756e-01 2.070660442113876343e-01 1.843759417533874512e-01 2.585006952285766602e-01 1.240441054105758667e-01 1.008047163486480713e-01 -1.057466864585876465e-01 3.442061245441436768e-01 9.248506277799606323e-02
3.127197623252868652e-01 -2.521205544471740723e-01 -2.883037626743316650e-01 -1.196762621402740479e-01 1.426545083522796631e-01 -3.062662184238433838e-01 -2.817466296255588531e-02 -1.267034560441970825e-01 -3.265790641307830811e-01 -3.288758695125579834e-01 4.664197564125061035e-01 3.575876951217651367e-01 -6.665222644805908203e-01 -1.987118721008300781e-01 8.719529211521148682e-02 -1.643722802400588989e-01 -5.944083258509635925e-02 -3.407258987426757812e-01 1.654076725244522095e-01 -2.826860845088958740e-01 -4.789283275604248047e-01 -2.256923913955688477e-01 4.428929984569549561e-01 -1.555020064115524292e-01 -5.477858781814575195e-01 1.136152520775794983e-01 -2.631834447383880615e-01 -2.221054583787918091e-01 -3.152005970478057861e-01 -9.974515438079833984e-02 5.580447241663932800e-02 -2.875066101551055908e-01 -3.970253765583038330e-01 6.599744409322738647e-02 4.420895278453826904e-01 9.288539178669452667e-03 5.029367208480834961e-01 6.138771027326583862e-02 3.143208846449851990e-02 -1.973994374275207520e-01 1.100567802786827087e-01 3.281582295894622803e-01 9.396957606077194214e-02 -4.931600019335746765e-02 1.490297354757785797e-02 5.817956924438476562e-01 8.796080946922302246e-01 2.304091304540634155e-01 1.290410757064819336e-02 6.531106233596801758e-01 -5.621792003512382507e-02 2.723027467727661133e-01 4.878780841827392578e-01 2.923502922058105469e-01 4.692532122135162354e-01 -2.641387581825256348e-01 -4.155190587043762207e-01 -9.849269688129425049e-02 5.145862102508544922e-01 7.492052763700485229e-02
2.900520563125610352e-01 9.274998307228088379e-01 -4.885870516300201416e-01 -7.626118510961532593e-02 -1.817849725484848022e-01 -3.093087673187255859e-01 2.860371954739093781e-02 2.216699719429016113e-01 -1.360007226467132568e-01 -9.356069564819335938e-02 -3.701823949813842773e-01 -3.602809309959411621e-01 4.206450283527374268e-01 1.101870894432067871e+00 2.568544447422027588e-01 -2.602077126502990723e-01 -2.209015190601348877e-01 -5.034308880567550659e-02 8.414736948907375336e-03 -1.551964432001113892e-01 3.748933970928192139e-02 -8.941449224948883057e-02 -3.254074454307556152e-01 -1.593025922775268555e-01 2.739093899726867676e-01 8.502695560455322266e-01 2.654068171977996826e-01 6.554104387760162354e-02 -9.070827066898345947e-02 7.425481826066970825e-02 -2.398150265216827393e-01 -3.131110966205596924e-01 -1.318800151348114014e-01 -1.678465902805328369e-01 -3.558671772480010986e-01 6.771662831306457520e-02 2.764172619208693504e-03 -2.081864476203918457e-01 1.141725704073905945e-01 -2.312068641185760498e-01 8.498907834291458130e-02 -3.060151934623718262e-01 -4.784114956855773926e-01 -2.493962878361344337e-03 -3.206768631935119629e-01 -4.279881417751312256e-01 -1.203549355268478394e-01 1.835363917052745819e-02 -7.017700374126434326e-02 -3.650661185383796692e-02 -3.222054243087768555e-01 -2.006940096616744995e-01 2.735763490200042725e-01 -2.170563787221908569e-01 -5.624328851699829102e-01 -4.258130192756652832e-01 -2.448245584964752197e-01 -3.601452112197875977e-01 -9.052085876464843750e-02 -3.772332966327667236e-01
9.271495044231414795e-02 9.269907474517822266e-01 -3.880527913570404053e-01 1.177560448646545410e+00 6.570528745651245117e-01 -2.753559648990631104e-01 -1.721246540546417236e-01 -6.026615155860781670e-04 4.987128823995590210e-02 -3.346309810876846313e-02 5.514877289533615112e-02 -6.193923950195312500e-01 -9.039030969142913818e-02 7.984266281127929688e-01 -7.801394164562225342e-02 5.246911048889160156e-01 9.319285750389099121e-01 -1.143673896789550781e+00 -4.882420599460601807e-01 -5.871858596801757812e-01 -4.416745305061340332e-01 -3.309822082519531250e-01 -4.195432364940643311e-01 -3.486058115959167480e-01 -1.606440097093582153e-01 2.783932685852050781e-01 -3.200213909149169922e-01 1.096633911132812500e+00 3.460040688514709473e-01 -1.454564094543457031e+00 -5.550944805145263672e-01 -1.064067602157592773e+00 -5.002138018608093262e-01 -1.379384398460388184e-01 -3.031756579875946045e-01 -6.517184376716613770e-01 1.511764526367187500e-01 3.530831336975097656e-01 -1.565381288528442383e-01 1.296336531639099121e+00 5.678219199180603027e-01 -8.619001507759094238e-01 -1.548232913017272949e+00 -1.246347784996032715e+00 1.272779610008001328e-02 -5.804761648178100586e-01 -4.500579237937927246e-01 -1.138461530208587646e-01 -3.057350218296051025e-02 -6.143819689750671387e-01 2.947432994842529297e-01 1.781929492950439453e+00 1.064530014991760254e+00 -5.661120414733886719e-01 -1.749051928520202637e+00 -1.147236585617065430e+00 -1.455870922654867172e-02 -6.435555219650268555e-01 -7.020415663719177246e-01 -1.897859126329421997e-01
6.230379939079284668e-01 5.045859813690185547e-01 -5.722457170486450195e-01 -3.185822963714599609e-01 -3.865587413311004639e-01 3.069128990173339844e-01 1.778348237276077271e-01 2.611296474933624268e-01 -1.151689812541007996e-01 -4.321574866771697998e-01 -1.732462942600250244e-01 4.240258336067199707e-01 9.078720957040786743e-02 -2.575310468673706055e-01 -2.085623592138290405e-01 -3.991444408893585205e-01 -3.439919352531433105e-01 1.197877824306488037e-01 -1.749525964260101318e-01 -3.711482509970664978e-02 -3.771246373653411865e-01 -4.583674073219299316e-01 -5.847522988915443420e-02 6.553460359573364258e-01 -4.806328415870666504e-01 5.564231276512145996e-01 1.022608652710914612e-01 5.052388906478881836e-01 1.658900976181030273e-01 3.489517867565155029e-01 2.592686414718627930e-01 3.208858370780944824e-01 -1.082868725061416626e-01 -5.316793918609619141e-01 -3.511893153190612793e-01 2.081790864467620850e-01 2.149739861488342285e-01 -1.729107201099395752e-01 -2.069401741027832031e-01 -1.538920104503631592e-01 -2.549165785312652588e-01 -1.174555160105228424e-02 6.021247431635856628e-02 3.896865546703338623e-01 1.838431321084499359e-02 -5.679220557212829590e-01 -2.182973027229309082e-01 -2.171036303043365479e-01 -1.638356447219848633e-01 -4.560539126396179199e-01 1.501061618328094482e-01 -2.025241106748580933e-01 -3.952310681343078613e-01 -4.161564409732818604e-01 3.778610825538635254e-01 1.724249273538589478e-01 -2.433433979749679565e-01 -5.098640918731689453e-01 -4.724515080451965332e-01 -9.585595130920410156e-02
-1.009781837463378906e+00 4.976420998573303223e-01 -4.852807819843292236e-01 -2.953959107398986816e-01 -1.194447837769985199e-02 -4.906884729862213135e-01 1.431880146265029907e-01 1.541621685028076172e-01 5.113564729690551758e-01 1.080585569143295288e-01 -2.308153361082077026e-01 -3.451938927173614502e-01 1.356697797775268555e+00 -3.262383341789245605e-01 4.572928696870803833e-02 -3.849159181118011475e-01 7.639622688293457031e-02 6.298883557319641113e-01 3.928231000900268555e-01 -7.275328505784273148e-03 -1.354057788848876953e-01 -4.624140262603759766e-01 -1.656908914446830750e-02 -1.060478612780570984e-01 -1.301205158233642578e+00 2.871664939448237419e-03 2.620800435543060303e-01 -2.563632726669311523e-01 8.249616622924804688e-02 7.110306024551391602e-01 7.972860932350158691e-01 4.512095451354980469e-01 2.197230458259582520e-01 -3.001929819583892822e-01 1.145322918891906738e-01 -1.185606233775615692e-02 -2.639799714088439941e-01 6.135774403810501099e-02 1.779356412589550018e-02 4.315332472324371338e-01 4.383779689669609070e-02 8.853347897529602051e-01 9.032401442527770996e-01 6.480538845062255859e-02 -1.393225938081741333e-01 -2.460519969463348389e-01 1.003507748246192932e-01 4.274154007434844971e-01 1.037508726119995117e+00 -1.982160508632659912e-01 -4.325612187385559082e-01 -1.045137643814086914e-02 6.255821585655212402e-01 5.205948352813720703e-01 3.653691411018371582e-01 1.469086706638336182e-01 1.606777161359786987e-01 3.262743055820465088e-01 1.536330878734588623e-01 -1.303791999816894531e-01
-3.203490972518920898e-01 -5.296587571501731873e-02 -4.412309527397155762e-01 7.488854229450225830e-02 7.989015579223632812e-01 8.467606455087661743e-02 1.262304037809371948e-01 -7.282778620719909668e-02 1.129527911543846130e-01 -1.178049370646476746e-01 -1.839211732149124146e-01 -2.476256154477596283e-02 1.292487978935241699e-01 -9.059825539588928223e-02 -9.836014509201049805e-01 -6.690638661384582520e-01 3.504797220230102539e-01 3.783308565616607666e-01 -3.819944560527801514e-01 -3.586889505386352539e-01 -1.700174808502197266e-01 -1.968352049589157104e-01 -2.428787201642990112e-01 -7.854441404342651367e-01 -1.193813681602478027e-01 3.036936521530151367e-01 -6.518380641937255859e-01 -4.169879108667373657e-02 6.295368075370788574e-01 3.751317858695983887e-01 -7.148445844650268555e-01 -4.862518906593322754e-01 -6.530342102050781250e-01 -6.901887804269790649e-02 -2.806292176246643066e-01 -3.710456490516662598e-01 -2.749913930892944336e-01 6.395200490951538086e-01 3.669742643833160400e-01 -2.627775669097900391e-01 3.356310725212097168e-01 -1.685157269239425659e-01 -4.553811550140380859e-01 -2.711862325668334961e-01 -8.838828802108764648e-01 -9.307546913623809814e-02 -2.903752960264682770e-02 -2.024829834699630737e-01 7.313096523284912109e-01 7.232396602630615234e-01 -1.100587770342826843e-01 3.213790953159332275e-01 -1.269956380128860474e-01 -4.095945060253143311e-01 -6.459167599678039551e-02 -2.826948463916778564e-01 -5.362797975540161133e-01 -1.719597578048706055e-01 3.090250790119171143e-01 5.269809961318969727e-01
6.708163619041442871e-01 1.793528199195861816e-01 7.531847953796386719e-01 2.280018478631973267e-01 4.813798666000366211e-01 9.274812340736389160e-01 -2.504591643810272217e-01 -1.494412273168563843e-01 7.997568845748901367e-01 -7.592041045427322388e-02 -3.115090429782867432e-01 -1.206953227519989014e-01 2.833067178726196289e-01 1.083878576755523682e-01 6.279768943786621094e-01 -1.876455992460250854e-01 3.085702359676361084e-01 5.576624274253845215e-01 8.982826024293899536e-03 1.987425237894058228e-02 6.608583927154541016e-01 4.468813166022300720e-02 3.804860413074493408e-01 -5.354768037796020508e-01 4.232296347618103027e-01 -7.302726805210113525e-02 8.899770379066467285e-01 2.279164791107177734e-01 -1.878566145896911621e-01 1.619856953620910645e-01 -2.661960422992706299e-01 4.703317582607269287e-01 1.647237390279769897e-01 1.336494982242584229e-01 1.780391186475753784e-01 -6.164394617080688477e-01 -3.038525581359863281e-01 -1.828328669071197510e-01 9.507570266723632812e-01 6.896223425865173340e-01 1.931145042181015015e-02 2.732923030853271484e-01 -6.909686326980590820e-02 6.985709071159362793e-01 5.291833877563476562e-01 4.368563890457153320e-01 -3.928857669234275818e-02 -5.762872099876403809e-01 -4.891678094863891602e-01 -1.770034879446029663e-01 4.182816743850708008e-01 5.448815822601318359e-01 -6.321667879819869995e-02 3.294052928686141968e-02 -1.734748482704162598e-01 9.604095220565795898e-01 9.214336276054382324e-01 6.773583889007568359e-01 -2.876116335391998291e-01 -9.052684903144836426e-01
1.426034420728683472e-01 -3.043763041496276855e-01 1.871789339929819107e-03 4.666656255722045898e-01 -4.442096352577209473e-01 -1.737948656082153320e-01 2.448825091123580933e-01 5.711071491241455078e-01 7.986682653427124023e-01 5.626361966133117676e-01 6.948766112327575684e-01 -5.322332382202148438e-01 1.255118846893310547e-01 8.478638529777526855e-02 4.002676904201507568e-01 -8.656159788370132446e-02 -1.811181306838989258e-01 2.997111082077026367e-01 5.772359371185302734e-01 1.683755367994308472e-01 5.773317813873291016e-01 4.612315297126770020e-01 2.064213454723358154e-01 -6.717382073402404785e-01 1.830426603555679321e-02 7.323866486549377441e-01 9.939953684806823730e-01 1.716852933168411255e-01 -2.225248366594314575e-01 -3.186827898025512695e-01 -1.058845221996307373e-01 -5.590702295303344727e-01 9.504878520965576172e-02 3.700456321239471436e-01 1.022536993026733398e+00 -3.029770553112030029e-01 1.573708653450012207e-01 1.304721117019653320e+00 4.963661432266235352e-01 9.877177327871322632e-02 2.899636328220367432e-01 -4.498889148235321045e-01 -6.971990466117858887e-01 -3.746502697467803955e-01 -2.035011053085327148e-01 -7.006690651178359985e-02 3.455252349376678467e-01 -6.702029109001159668e-01 -8.118762820959091187e-02 3.919529616832733154e-01 3.197135031223297119e-01 1.477981824427843094e-02 -5.018022656440734863e-01 -6.363149285316467285e-01 -9.568369984626770020e-01 -3.825292289257049561e-01 -1.645166426897048950e-01 -1.604245454072952271e-01 -5.527745485305786133e-01 -1.436947226524353027e+00
2.027552276849746704e-01 3.559385240077972412e-01 -2.131597548723220825e-01 3.179702907800674438e-02 3.512285649776458740e-01 1.020990014076232910e-01 4.744280278682708740e-01 -7.488089054822921753e-02 -4.280097782611846924e-01 3.107220679521560669e-02 5.406495332717895508e-01 3.323053121566772461e-01 6.006514430046081543e-01 3.759736120700836182e-01 2.891477048397064209e-01 -1.344516873359680176e-01 8.753390610218048096e-02 -1.406401675194501877e-02 6.114116907119750977e-01 -2.199507504701614380e-01 -4.444421231746673584e-01 1.484061311930418015e-02 5.012893676757812500e-01 3.392153084278106689e-01 -1.636230349540710449e-01 -1.750638633966445923e-01 1.214665453881025314e-02 -2.164520174264907837e-01 1.941726058721542358e-01 -2.090341299772262573e-01 3.624628186225891113e-01 -5.224027633666992188e-01 -6.205592155456542969e-01 2.029940299689769745e-02 3.159302473068237305e-01 3.846595287322998047e-01 -3.156451582908630371e-01 -2.115364670753479004e-01 1.772189140319824219e-01 -2.558631636202335358e-02 1.311682015657424927e-01 -1.170581392943859100e-02 -2.005295157432556152e-01 -3.206777572631835938e-01 -1.381077468395233154e-01 8.116047829389572144e-02 1.610078215599060059e-01 -6.914991419762372971e-03 -7.665415853261947632e-02 2.194316238164901733e-01 1.238253712654113770e-02 -5.254555027931928635e-03 5.728568434715270996e-01 1.442396193742752075e-01 -1.731927990913391113e-01 -1.410812735557556152e-01 -3.262760639190673828e-01 6.534964777529239655e-03 2.486678808927536011e-01 7.624359335750341415e-03
1.021517276763916016e+00 -2.325404435396194458e-01 5.141776800155639648e-02 6.273956596851348877e-02 1.300864517688751221e-01 6.824052333831787109e-02 -1.123423129320144653e-01 -2.015038877725601196e-01 4.070566222071647644e-02 3.216451779007911682e-02 -3.020356968045234680e-02 -6.067843735218048096e-02 3.219166100025177002e-01 8.354264497756958008e-02 2.937975823879241943e-01 3.968639299273490906e-02 2.144942283630371094e-01 -1.504810154438018799e-01 -1.916490644216537476e-01 1.773468032479286194e-02 9.493206441402435303e-02 -1.880626223282888532e-04 -5.749696400016546249e-03 -3.386132046580314636e-02 -4.233613312244415283e-01 3.428284823894500732e-01 3.176182508468627930e-01 3.426414430141448975e-01 2.149557024240493774e-01 -6.737793982028961182e-02 -6.524989753961563110e-02 8.674284070730209351e-02 8.889212273061275482e-03 -3.021384403109550476e-02 1.229915618896484375e-01 1.480991691350936890e-01 3.087758123874664307e-01 3.796518743038177490e-01 2.992180883884429932e-01 1.713140606880187988e-01 1.054257005453109741e-01 -4.928848519921302795e-02 -1.167576164007186890e-01 -5.104938521981239319e-02 9.141661226749420166e-03 1.082799304276704788e-02 -7.212323136627674103e-03 5.669077113270759583e-02 6.784628033638000488e-01 1.416983902454376221e-01 1.924428641796112061e-01 9.722150862216949463e-02 8.951287716627120972e-02 -1.329049170017242432e-01 -1.668037623167037964e-01 -3.902706131339073181e-02 5.628513917326927185e-02 -1.323875156231224537e-03 7.781805098056793213e-02 4.709490388631820679e-02
-3.077805601060390472e-02 -3.782590031623840332e-01 9.461962580680847168e-01 6.427892297506332397e-02 -3.718935847282409668e-01 2.828945778310298920e-02 -1.041190028190612793e-01 -6.278867274522781372e-02 4.925312846899032593e-02 2.511379122734069824e-01 1.427057832479476929e-01 3.297403752803802490e-01 -9.214387089014053345e-02 -3.680365085601806641e-01 5.592115521430969238e-01 3.962607681751251221e-02 -4.215404689311981201e-01 -3.850508108735084534e-02 -1.458225548267364502e-01 1.539992243051528931e-01 4.577843099832534790e-02 -1.407420635223388672e-01 -6.129899621009826660e-01 1.374071836471557617e-01 2.186244726181030273e-01 -1.424271166324615479e-01 1.567121595144271851e-01 -2.766114771366119385e-01 -3.098777830600738525e-01 1.877064406871795654e-01 3.089699447154998779e-01 4.198033213615417480e-01 1.464637815952301025e-01 -1.143651679158210754e-01 -3.993382453918457031e-01 2.186716645956039429e-01 -2.643715143203735352e-01 -7.734864205121994019e-02 5.588362216949462891e-01 4.511720836162567139e-01 1.446686983108520508e-01 1.317495107650756836e-02 1.227927953004837036e-01 3.355283737182617188e-01 2.059744447469711304e-01 -3.608895465731620789e-02 -1.670614480972290039e-01 4.227024912834167480e-01 -1.653511226177215576e-01 1.107943877577781677e-01 4.117737412452697754e-01 8.637834340333938599e-03 -1.132012978196144104e-01 -1.290767937898635864e-01 -6.209100037813186646e-02 7.868371158838272095e-02 1.951225996017456055e-01 1.575828492641448975e-01 4.407058656215667725e-02 6.189328804612159729e-02
1.561249047517776489e-01 2.529773712158203125e-01 1.728232204914093018e-02 3.400125801563262939e-01 -4.617502540349960327e-02 -2.247923612594604492e-01 -3.299138322472572327e-02 1.470885127782821655e-01 -6.717645376920700073e-02 -1.423530876636505127e-01 1.885073632001876831e-01 -2.988147083669900894e-03 5.801029875874519348e-02 -1.329306513071060181e-02 5.673763155937194824e-02 -6.091742310672998428e-03 -1.886587142944335938e-01 -4.925627708435058594e-01 -1.349349021911621094e-01 -1.760110706090927124e-01 -1.065306365489959717e-01 -2.402083277702331543e-01 -2.906258404254913330e-01 -1.212510839104652405e-01 -1.779105812311172485e-01 9.345342963933944702e-02 -1.100512742996215820e-01 -1.201459541916847229e-01 -7.593786716461181641e-02 -1.272507458925247192e-01 -3.041620850563049316e-01 4.796546697616577148e-02 8.562142029404640198e-03 -2.493912130594253540e-01 -2.508647739887237549e-01 -2.057333290576934814e-01 -1.414185017347335815e-01 1.493886858224868774e-01 2.143208384513854980e-01 3.426380455493927002e-01 2.458623051643371582e-01 -1.060531195253133774e-02 1.025951933115720749e-02 2.002361267805099487e-01 3.246301412582397461e-01 1.455008238554000854e-01 -1.650844663381576538e-01 1.184774041175842285e-01 2.502609789371490479e-01 1.740713417530059814e-01 1.358879953622817993e-01 2.062588036060333252e-01 3.857742846012115479e-01 1.517476141452789307e-01 1.087591201066970825e-01 1.904515326023101807e-01 2.244178503751754761e-01 -2.634605765342712402e-02 6.276486814022064209e-02 1.761737018823623657e-01
-1.271230429410934448e-01 1.794003415852785110e-03 2.682040631771087646e-02 6.925820559263229370e-02 2.180060148239135742e-01 -4.754335805773735046e-02 -4.004272446036338806e-02 -1.502624601125717163e-01 -2.482526749372482300e-01 -2.768753767013549805e-01 -8.634215220808982849e-03 -1.596674323081970215e-03 -9.812806248664855957e-01 1.228335127234458923e-01 6.528717279434204102e-02 2.852520346641540527e-01 3.023823797702789307e-01 8.344287425279617310e-02 2.029627710580825806e-01 -2.337188571691513062e-01 -2.041567414999008179e-01 4.866686463356018066e-02 5.133077502250671387e-01 2.610967457294464111e-01 1.095592737197875977e+00 2.253285795450210571e-01 3.523542732000350952e-02 2.286661975085735321e-02 -6.130570545792579651e-02 1.783750019967556000e-02 1.360638346523046494e-02 -1.178445294499397278e-01 -2.215418070554733276e-01 1.068185791373252869e-01 3.727344274520874023e-01 2.028522789478302002e-01 -7.199922204017639160e-01 1.311482489109039307e-01 2.087245136499404907e-01 -3.039992181584239006e-03 2.434187829494476318e-01 8.442745357751846313e-02 -7.416250556707382202e-02 -3.409466743469238281e-01 -3.616757690906524658e-02 7.678031921386718750e-02 5.431163907051086426e-01 2.767187654972076416e-01 -1.844967603683471680e-01 -3.882400989532470703e-01 2.602392109110951424e-03 2.096041589975357056e-01 1.175163500010967255e-02 3.598813116550445557e-01 3.810487221926450729e-03 -2.370930761098861694e-01 -1.252575963735580444e-01 -2.022318243980407715e-01 1.696931868791580200e-01 -4.177629202604293823e-02
2.206573188304901123e-01 -8.460688591003417969e-02 -1.701667606830596924e-01 -7.642485201358795166e-02 1.307723764330148697e-02 -8.257243037223815918e-02 7.881900668144226074e-02 1.572899892926216125e-02 -5.979286134243011475e-02 1.776419952511787415e-02 -5.731894448399543762e-02 -7.494514342397451401e-03 6.940203905105590820e-02 1.665555126965045929e-02 9.292133152484893799e-02 -6.257575005292892456e-02 -2.290610224008560181e-02 -1.140644177794456482e-01 -9.938509762287139893e-02 5.181406810879707336e-02 -4.332906752824783325e-02 -8.085927367210388184e-02 7.335551083087921143e-02 1.006515473127365112e-01 5.988652631640434265e-02 -1.925998926162719727e-02 3.245807811617851257e-02 9.283881634473800659e-02 1.767655834555625916e-02 4.887335002422332764e-02 6.728128343820571899e-02 -7.491350173950195312e-02 5.008447915315628052e-02 3.999688476324081421e-02 2.367454394698143005e-02 3.960261866450309753e-02 1.436763703823089600e-01 1.161540597677230835e-01 -9.039920568466186523e-02 -3.582384437322616577e-02 4.820033535361289978e-02 1.157091408967971802e-01 1.189542189240455627e-01 1.060450226068496704e-01 1.201106756925582886e-01 -8.808962069451808929e-03 -2.004455029964447021e-02 -8.363011479377746582e-02 8.805546909570693970e-02 1.495212167501449585e-01 -1.234141644090414047e-02 8.505830168724060059e-02 -4.924920387566089630e-03 5.546325817704200745e-02 1.329903155565261841e-01 -2.595509961247444153e-02 4.479120671749114990e-02 -4.517477750778198242e-02 1.175221353769302368e-01 -1.090985089540481567e-01
-3.325449228286743164e-01 3.022831864655017853e-02 4.684711694717407227e-01 9.846352040767669678e-02 -2.536986470222473145e-01 -6.667961925268173218e-02 -4.522800445556640625e-01 -4.796221256256103516e-01 -2.572697997093200684e-01 1.592061519622802734e-01 5.045992136001586914e-01 6.900313496589660645e-01 -7.183429598808288574e-01 -1.665717959403991699e-01 -1.554704606533050537e-01 1.668291091918945312e-01 2.623459696769714355e-01 -1.275929212570190430e-01 -1.837786436080932617e-01 -3.498422503471374512e-01 1.221494842320680618e-02 2.731006145477294922e-01 7.656310200691223145e-01 3.251867890357971191e-01 -2.506358623504638672e-01 2.586745023727416992e-01 -2.399261891841888428e-01 5.625779628753662109e-01 3.873250186443328857e-01 -4.399674478918313980e-03 -7.254847139120101929e-02 3.255186602473258972e-02 -4.914728552103042603e-02 -2.097236365079879761e-02 2.355898469686508179e-01 1.867103576660156250e-01 -8.877583742141723633e-01 -5.018874406814575195e-01 -4.637970328330993652e-01 2.320833653211593628e-01 6.016936898231506348e-02 -4.363867640495300293e-01 -3.392258882522583008e-01 -5.241842940449714661e-02 5.277452245354652405e-02 3.682937622070312500e-01 1.981754302978515625e-01 -2.223444543778896332e-02 9.628867506980895996e-01 -6.590461730957031250e-01 -4.855329990386962891e-01 -5.568253248929977417e-02 -2.588487565517425537e-01 3.357154130935668945e-01 1.084238067269325256e-01 2.801600657403469086e-02 2.777314484119415283e-01 1.966943591833114624e-01 -1.103439107537269592e-01 -1.812517791986465454e-01
-7.370736598968505859e-01 2.115036398172378540e-01 1.407655514776706696e-02 -2.718277871608734131e-01 1.853286921977996826e-01 4.678480625152587891e-01 5.385399460792541504e-01 3.171593546867370605e-01 8.459176868200302124e-03 -1.164296492934226990e-01 -1.052244827151298523e-01 1.159735862165689468e-02 -1.072755217552185059e+00 3.822011351585388184e-01 7.855198979377746582e-01 4.793347418308258057e-01 6.335067003965377808e-02 1.014650464057922363e-01 4.940520599484443665e-02 1.675399988889694214e-01 -2.126516103744506836e-01 -1.791288554668426514e-01 -3.090908527374267578e-01 4.434756636619567871e-01 -7.658675312995910645e-01 2.568981349468231201e-01 6.504025459289550781e-01 4.452294409275054932e-01 1.662272214889526367e-01 -1.693021208047866821e-01 -2.296717017889022827e-01 -3.809590265154838562e-02 -2.031373381614685059e-01 -1.139039546251296997e-01 5.498200282454490662e-02 2.992809712886810303e-01 9.027957916259765625e-01 1.736270934343338013e-01 4.199799895286560059e-01 1.425902098417282104e-01 -4.743732511997222900e-02 -3.001858890056610107e-01 -3.648910522460937500e-01 1.017536073923110962e-01 -3.268493413925170898e-01 -4.784628748893737793e-01 9.143757633864879608e-03 3.395996391773223877e-01 1.077672243118286133e+00 5.170980468392372131e-02 -3.198137739673256874e-03 -1.379633601754903793e-02 -1.143108867108821869e-02 -1.559103131294250488e-01 -1.630277335643768311e-01 -1.130205020308494568e-01 -3.844513297080993652e-01 -3.172556459903717041e-01 5.527518689632415771e-02 2.099743336439132690e-01
8.744066208600997925e-02 7.808014750480651855e-01 -5.805920809507369995e-02 9.272506833076477051e-02 -3.752028048038482666e-01 1.303772907704114914e-02 6.213849186897277832e-01 4.255593121051788330e-01 -5.044257640838623047e-02 -3.989780843257904053e-01 -6.151682138442993164e-01 -5.482184886932373047e-02 1.322536706924438477e+00 5.966444611549377441e-01 -2.598309516906738281e-01 -5.194488763809204102e-01 -5.554991364479064941e-01 -1.840108335018157959e-01 2.528205513954162598e-02 1.598828136920928955e-01 1.266603022813796997e-01 -3.403641283512115479e-01 -3.055609762668609619e-01 1.208681613206863403e-01 -5.600504204630851746e-02 3.407690823078155518e-01 -4.478522837162017822e-01 -4.679779410362243652e-01 -1.684603840112686157e-01 -1.246054321527481079e-01 -3.598360121250152588e-01 -1.787115186452865601e-01 9.245720505714416504e-02 -7.704258710145950317e-02 -3.069217503070831299e-01 1.776226460933685303e-01 -8.022406697273254395e-02 4.491230249404907227e-01 2.078904062509536743e-01 -1.789249926805496216e-01 -2.049963623285293579e-01 -2.005328685045242310e-01 -3.829104006290435791e-01 -5.022973939776420593e-02 3.954156115651130676e-02 -1.872251927852630615e-01 -3.814975917339324951e-01 -2.148772627115249634e-01 -5.478674769401550293e-01 4.772287607192993164e-01 2.622358500957489014e-01 4.072494804859161377e-01 3.077862262725830078e-01 5.110964924097061157e-02 1.607837229967117310e-01 2.185286283493041992e-01 4.339606761932373047e-01 -1.540000885725021362e-01 -1.031607165932655334e-01 -5.141729488968849182e-02
3.073578774929046631e-01 -3.417870700359344482e-01 -3.558377325534820557e-01 -1.486653387546539307e-01 2.030234485864639282e-01 3.153983950614929199e-01 5.330337285995483398e-01 3.416569158434867859e-02 -2.413576841354370117e-01 1.045775413513183594e-01 9.692165255546569824e-02 5.764246359467506409e-02 3.510726988315582275e-01 -4.960001111030578613e-01 -3.795431926846504211e-02 -7.331909984350204468e-02 9.958848357200622559e-03 5.039990544319152832e-01 4.841946661472320557e-01 2.156066149473190308e-01 -2.686991095542907715e-01 4.488556459546089172e-02 2.570291459560394287e-01 1.695750951766967773e-01 3.502181768417358398e-01 -5.863157510757446289e-01 -2.441261336207389832e-02 2.565085887908935547e-01 -1.558061391115188599e-01 3.928890824317932129e-01 1.030696108937263489e-01 1.491504069417715073e-02 -2.000376582145690918e-01 9.114036709070205688e-02 1.076213046908378601e-01 1.287772208452224731e-01 -2.461245357990264893e-01 -2.848403342068195343e-02 2.233915776014328003e-01 2.201766073703765869e-01 -9.321454912424087524e-02 1.253743618726730347e-01 1.414980739355087280e-01 -2.246282994747161865e-02 -2.753095924854278564e-01 1.070305630564689636e-01 4.584052264690399170e-01 1.575325578451156616e-01 -9.013703465461730957e-01 1.804224252700805664e-01 2.012574113905429840e-02 2.257074266672134399e-01 -1.308434158563613892e-01 1.053762063384056091e-01 2.376102060079574585e-01 -1.943974643945693970e-01 8.452326804399490356e-02 1.929244697093963623e-01 5.744178295135498047e-01 2.372272759675979614e-01
2.986519634723663330e-01 1.871536523103713989e-01 3.199687898159027100e-01 -1.056963726878166199e-01 -5.684556365013122559e-01 -4.525618553161621094e-01 -1.923456639051437378e-01 -5.062401890754699707e-01 -2.393774837255477905e-01 -4.420936107635498047e-02 -5.954673141241073608e-02 -5.569823086261749268e-02 4.752999171614646912e-02 -3.630754724144935608e-02 -1.594047546386718750e-01 -2.053539454936981201e-01 -4.475882053375244141e-01 -3.121962547302246094e-01 -2.407858669757843018e-01 -1.073584631085395813e-01 -1.406880021095275879e-01 9.179218858480453491e-02 2.087871879339218140e-01 -1.859146915376186371e-02 -6.381009221076965332e-01 1.926940977573394775e-01 4.269404411315917969e-01 9.857150167226791382e-02 -1.283670365810394287e-01 9.813599288463592529e-02 1.898483037948608398e-01 1.421143859624862671e-01 -1.749632358551025391e-01 -8.372634649276733398e-02 2.935801744461059570e-01 -1.306419968605041504e-01 -9.445389509201049805e-01 2.293175458908081055e-01 6.803130358457565308e-02 2.856183238327503204e-02 -1.350615546107292175e-02 -2.178720980882644653e-01 1.646070778369903564e-01 9.586107730865478516e-02 9.264253824949264526e-02 2.293205559253692627e-01 1.194312423467636108e-01 -2.634836435317993164e-01 5.323755741119384766e-01 -1.984889358282089233e-01 -6.241232156753540039e-01 -1.719536781311035156e-01 1.755891293287277222e-01 3.891730010509490967e-01 8.973733335733413696e-02 3.137696161866188049e-02 1.242391839623451233e-01 2.835828959941864014e-01 -1.156928017735481262e-01 -5.096414685249328613e-01
6.014492511749267578e-01 9.292522072792053223e-01 1.601004302501678467e-01 -4.555484652519226074e-02 2.513670921325683594e-01 -3.601761162281036377e-02 -1.020413279533386230e+00 -4.476832449436187744e-01 -1.309694051742553711e-01 6.942695379257202148e-02 -7.540479302406311035e-01 2.332210689783096313e-01 1.385618895292282104e-01 2.254498451948165894e-01 5.794726312160491943e-02 -1.921231448650360107e-01 -1.433957070112228394e-01 2.595479190349578857e-01 9.107985347509384155e-02 1.728033870458602905e-01 2.641901373863220215e-03 2.544956207275390625e-01 -2.150611728429794312e-01 7.248662710189819336e-01 -1.764718443155288696e-01 -2.404387295246124268e-01 -2.369005233049392700e-01 -1.816890388727188110e-01 -1.561158001422882080e-01 1.965766400098800659e-01 4.311172366142272949e-01 2.501337528228759766e-01 3.153445124626159668e-01 3.643819391727447510e-01 1.622566729784011841e-01 9.517682194709777832e-01 -4.866719841957092285e-01 -7.079316377639770508e-01 2.059083282947540283e-01 2.153990417718887329e-01 3.065474145114421844e-02 1.997034400701522827e-01 3.057116568088531494e-01 2.116867899894714355e-01 2.494633495807647705e-01 1.847695112228393555e-01 9.227858483791351318e-02 7.257239818572998047e-01 -4.337784349918365479e-01 -1.275223731994628906e+00 -1.199476644396781921e-01 -9.394709765911102295e-02 -2.343348860740661621e-01 6.920796632766723633e-02 1.357851475477218628e-01 3.520492613315582275e-01 1.944709122180938721e-01 1.752685457468032837e-01 1.910676807165145874e-01 7.394279241561889648e-01
-1.284998282790184021e-02 -9.178823977708816528e-02 -1.182352900505065918e-01 -8.918667212128639221e-03 1.245970726013183594e-01 -1.075885519385337830e-01 9.103968739509582520e-02 8.964525163173675537e-02 3.374221175909042358e-02 1.207598447799682617e-01 -1.630340889096260071e-02 8.444003760814666748e-02 1.112272664904594421e-01 -7.030077278614044189e-02 1.541676814667880535e-03 -1.147179752588272095e-01 5.989206954836845398e-02 1.230286434292793274e-01 1.229534745216369629e-01 8.353449404239654541e-02 4.885538667440414429e-02 3.709218651056289673e-02 1.140344440937042236e-01 -8.332752436399459839e-02 -6.480224430561065674e-02 5.654796957969665527e-02 -5.950717255473136902e-03 2.467382512986660004e-02 -9.179260581731796265e-02 -1.302199065685272217e-02 8.284589648246765137e-02 4.411479085683822632e-02 3.880850225687026978e-02 9.113360196352005005e-02 2.246985584497451782e-02 -9.137116372585296631e-02 7.043881714344024658e-02 6.167285889387130737e-02 -8.542231470346450806e-02 5.136894062161445618e-02 -1.865722239017486572e-02 1.217536777257919312e-01 1.172085106372833252e-01 7.467938214540481567e-02 -6.269753724336624146e-02 -9.649882465600967407e-02 1.086102426052093506e-02 6.444495171308517456e-02 5.722448974847793579e-02 -1.036436259746551514e-01 -5.831272527575492859e-02 7.814449816942214966e-02 -1.346299424767494202e-02 2.886685170233249664e-02 8.614718914031982422e-02 -2.169923158362507820e-03 1.239647567272186279e-01 -1.126290559768676758e-01 5.231013521552085876e-02 -1.063456758856773376e-01
4.202515184879302979e-01 1.520917266607284546e-01 8.873074650764465332e-01 1.053556799888610840e+00 3.209268748760223389e-01 -5.015208125114440918e-01 8.787474632263183594e-01 2.084792554378509521e-01 3.772093355655670166e-01 1.210580840706825256e-01 4.173604846000671387e-01 -3.863900303840637207e-01 2.887220084667205811e-01 -1.758263349533081055e+00 4.972390830516815186e-01 1.229172348976135254e+00 7.393501996994018555e-01 -5.662451982498168945e-01 1.702744364738464355e-01 2.833244800567626953e-01 4.118369817733764648e-01 1.950713396072387695e-01 6.265527009963989258e-01 -6.831126213073730469e-01 -4.011381790041923523e-02 -1.618760704994201660e+00 9.880735278129577637e-01 1.143060207366943359e+00 1.086443424224853516e+00 -3.935320973396301270e-01 -2.499207258224487305e-01 -1.992481350898742676e-01 8.359902501106262207e-01 -1.259293872863054276e-02 3.489299714565277100e-01 -6.181715130805969238e-01 1.739669442176818848e-01 6.767505407333374023e-02 7.265881896018981934e-01 3.942328691482543945e-01 9.487504959106445312e-01 -7.934467867016792297e-03 1.151637732982635498e-01 -1.204192824661731720e-02 3.108990788459777832e-01 -1.574067920446395874e-01 -4.771752059459686279e-01 -2.287427037954330444e-01 1.213665753602981567e-01 1.047933459281921387e+00 6.086481809616088867e-01 7.024469971656799316e-02 4.412738978862762451e-01 -4.261685907840728760e-01 1.223273649811744690e-01 -5.177474617958068848e-01 5.377954244613647461e-01 -1.912294030189514160e-01 -8.750824332237243652e-01 -1.334778308868408203e+00
2.238154113292694092e-01 2.432592958211898804e-01 5.456462502479553223e-03 4.562177509069442749e-02 -1.912806779146194458e-01 -6.573405116796493530e-02 -1.230326369404792786e-01 6.072561815381050110e-02 1.165486406534910202e-02 -8.039441704750061035e-02 1.093213185667991638e-01 -1.122281849384307861e-01 -2.653764747083187103e-02 1.334486901760101318e-01 -2.069539576768875122e-02 -1.938920021057128906e-01 -1.068774163722991943e-01 2.142681740224361420e-02 8.650301024317741394e-03 1.571498811244964600e-01 1.342917680740356445e-01 1.622813642024993896e-01 2.693380462005734444e-03 2.333413809537887573e-02 2.054759860038757324e-01 -1.002163346856832504e-02 2.957075648009777069e-02 1.158920750021934509e-01 -5.216758325695991516e-02 5.741107836365699768e-02 -8.775730431079864502e-02 9.347335249185562134e-02 1.173563860356807709e-02 4.517226014286279678e-03 -8.787555620074272156e-03 4.906675592064857483e-02 -5.079556256532669067e-02 1.725945770740509033e-01 2.436102777719497681e-01 1.875258982181549072e-01 3.402647003531455994e-02 -3.443942591547966003e-02 1.280949413776397705e-01 -1.286434382200241089e-01 5.842212121933698654e-03 -4.336703568696975708e-02 1.332862377166748047e-01 1.711763739585876465e-01 5.291658639907836914e-01 2.328742109239101410e-02 -4.415704309940338135e-02 1.051219254732131958e-01 -6.835635006427764893e-02 1.189877614378929138e-01 2.789782546460628510e-02 -5.720506608486175537e-02 5.560754984617233276e-02 -3.012926084920763969e-03 -1.426089107990264893e-01 -2.046958543360233307e-02
1.220277920365333557e-01 7.443030178546905518e-02 -6.150734797120094299e-02 -8.262095600366592407e-02 -1.668766513466835022e-02 4.595551639795303345e-02 -1.117496341466903687e-01 -5.026909708976745605e-02 1.103799417614936829e-01 1.015912294387817383e-01 1.119324415922164917e-01 8.293620496988296509e-02 2.315652221441268921e-01 6.465434096753597260e-03 -1.315117478370666504e-01 2.363811712712049484e-03 1.099358424544334412e-01 5.707067623734474182e-02 -1.170817539095878601e-01 1.778039708733558655e-02 6.044812966138124466e-03 -1.263376474380493164e-01 1.847115345299243927e-02 4.588996618986129761e-02 1.919725090265274048e-01 -9.439864009618759155e-02 6.047186627984046936e-02 -7.858730852603912354e-02 -9.699172526597976685e-02 4.200586304068565369e-02 -8.888278156518936157e-02 6.807442754507064819e-02 1.226862594485282898e-01 7.348895072937011719e-02 -2.877340279519557953e-02 6.777057051658630371e-02 2.041500806808471680e-01 -7.410255074501037598e-02 2.706670947372913361e-02 7.119983434677124023e-03 -1.194195598363876343e-01 3.145392239093780518e-02 1.132043525576591492e-01 9.728004038333892822e-02 -1.011430751532316208e-02 7.407414168119430542e-02 1.033983305096626282e-01 -2.644577063620090485e-02 -7.095272094011306763e-02 -2.549592964351177216e-02 -1.297737807035446167e-01 5.089390650391578674e-02 -4.744927212595939636e-02 4.421539232134819031e-02 6.603392772376537323e-03 -1.025037169456481934e-01 1.212119939737021923e-03 -1.168314069509506226e-01 8.868091553449630737e-02 -4.651706293225288391e-02
6.125903502106666565e-02 3.892881050705909729e-02 8.192409574985504150e-02 -5.714188516139984131e-02 -1.017339974641799927e-01 6.520075350999832153e-02 1.204957813024520874e-01 -5.217387527227401733e-02 8.975662291049957275e-02 5.291478708386421204e-02 1.073650419712066650e-01 1.253795064985752106e-02 3.511062264442443848e-02 -1.158716157078742981e-01 -1.209152117371559143e-01 -1.100645363330841064e-01 -1.216256320476531982e-01 1.532413158565759659e-02 5.218035727739334106e-02 7.058326900005340576e-02 -1.119902208447456360e-01 7.889505475759506226e-02 -7.826438546180725098e-02 5.570073612034320831e-03 -1.707733795046806335e-02 8.440986275672912598e-02 -5.213531851768493652e-02 -2.315473556518554688e-02 -4.646366089582443237e-02 2.556811645627021790e-02 1.036059558391571045e-01 -1.202203035354614258e-01 -5.020954087376594543e-02 -1.158648505806922913e-01 -9.804859012365341187e-02 -6.665379554033279419e-02 1.249577924609184265e-01 -9.588068723678588867e-02 3.186151757836341858e-02 -6.826909724622964859e-03 8.714213967323303223e-02 -1.182129532098770142e-01 -3.232260420918464661e-02 -1.448494940996170044e-02 3.878252580761909485e-02 2.130909450352191925e-02 -9.481032937765121460e-02 -2.094662934541702271e-02 1.509363055229187012e-01 8.529084920883178711e-02 -6.624788045883178711e-02 -1.936279120855033398e-03 9.539017826318740845e-02 -8.562784641981124878e-02 -1.591193117201328278e-02 -1.016476228833198547e-01 -1.209617555141448975e-01 -3.225342556834220886e-02 -3.338137641549110413e-02 -1.120371073484420776e-01
7.291184067726135254e-01 -3.024844266474246979e-02 -1.645996123552322388e-01 2.843023538589477539e-01 2.818650305271148682e-01 -4.251879155635833740e-01 -1.167358517646789551e+00 -8.511179089546203613e-01 -1.744170039892196655e-01 -4.741595685482025146e-01 -1.579161435365676880e-01 6.111747622489929199e-01 7.107411623001098633e-01 7.987371832132339478e-02 -7.728093266487121582e-01 -4.708822965621948242e-01 8.244518190622329712e-03 6.404611468315124512e-02 7.036244124174118042e-02 -1.646376680582761765e-03 2.485419064760208130e-01 9.392578899860382080e-02 5.788663625717163086e-01 1.673082113265991211e-01 -1.019366621971130371e+00 4.140344262123107910e-01 4.703568220138549805e-01 1.483310665935277939e-02 2.273019999265670776e-01 -1.352848708629608154e-01 -1.199447587132453918e-01 -7.289989292621612549e-02 3.363243862986564636e-02 -2.939716912806034088e-02 3.812507390975952148e-01 1.353864669799804688e-01 9.270186722278594971e-02 -2.101543396711349487e-01 8.252346515655517578e-01 -8.373152464628219604e-02 -9.407237172126770020e-01 -4.519827067852020264e-01 3.666568398475646973e-01 1.998864710330963135e-01 6.796483993530273438e-01 3.911620378494262695e-01 7.221312522888183594e-01 -4.687759578227996826e-01 -2.128455974161624908e-02 3.044124841690063477e-01 1.233662247657775879e+00 7.743520736694335938e-01 -7.121740579605102539e-01 4.024299383163452148e-01 -6.705995649099349976e-02 1.839981228113174438e-01 6.149552762508392334e-02 -2.120798230171203613e-01 1.377386003732681274e-01 3.770404681563377380e-02
4.147484898567199707e-02 1.070095971226692200e-01 7.940849661827087402e-02 2.489557303488254547e-02 -1.259000748395919800e-01 -1.166638582944869995e-01 -1.273883730173110962e-01 -8.961135521531105042e-03 3.998402680736035109e-04 1.287759691476821899e-01 -8.922730572521686554e-03 5.573849752545356750e-02 5.140556488186120987e-03 6.267915014177560806e-03 -8.166684210300445557e-02 9.595765173435211182e-02 -2.665341645479202271e-02 1.253148317337036133e-01 9.532987326383590698e-02 -3.812532126903533936e-02 3.757591918110847473e-02 -1.245989799499511719e-01 -1.089705154299736023e-02 -5.339184403419494629e-02 -5.263436213135719299e-02 -1.283412128686904907e-01 -4.813178256154060364e-02 -3.286999836564064026e-02 -8.130187541246414185e-02 -1.160479485988616943e-01 -1.975985243916511536e-02 -2.439637109637260437e-02 -7.802344858646392822e-02 -1.271113306283950806e-01 1.029646396636962891e-01 -1.378586702048778534e-02 -6.355140823870897293e-03 1.896386221051216125e-02 -2.577327936887741089e-02 -6.298994272947311401e-02 -1.062067672610282898e-01 -7.335839420557022095e-02 -7.000153511762619019e-02 -8.186418563127517700e-02 4.267592728137969971e-02 -2.368678152561187744e-02 1.032947376370429993e-01 1.107143387198448181e-01 6.949562579393386841e-02 3.679285198450088501e-02 -3.709873929619789124e-02 -5.224760249257087708e-02 7.918193936347961426e-02 6.930861622095108032e-02 -3.646465018391609192e-02 -1.168515831232070923e-01 5.080318823456764221e-02 -5.473908782005310059e-02 -8.694960176944732666e-02 5.610975250601768494e-02
3.232051432132720947e-01 -1.523957848548889160e-01 -1.566018313169479370e-01 -1.113025993108749390e-01 6.712883710861206055e-02 -6.692330818623304367e-03 -9.800220280885696411e-02 7.509439438581466675e-02 -1.034723445773124695e-01 -3.311670571565628052e-02 2.404998987913131714e-02 -1.278495788574218750e-01 1.287096366286277771e-02 1.543965786695480347e-01 6.135187298059463501e-02 -5.911344662308692932e-02 4.921440780162811279e-02 -1.454128324985504150e-01 3.468891233205795288e-02 -8.929167687892913818e-02 -3.959173709154129028e-02 4.663685709238052368e-02 6.413025408983230591e-02 -2.501929178833961487e-02 -1.187207028269767761e-01 -5.660779401659965515e-02 7.131521590054035187e-03 1.108147855848073959e-02 9.355708211660385132e-02 -1.055266931653022766e-01 3.828761726617813110e-02 -6.430352479219436646e-02 6.765766441822052002e-02 8.341852575540542603e-02 4.329742863774299622e-02 5.429693311452865601e-02 1.854177331551909447e-03 -1.620826683938503265e-02 3.960024565458297729e-02 6.528344750404357910e-02 3.475600481033325195e-02 -1.060978975147008896e-02 -1.056709736585617065e-01 -4.032078012824058533e-02 -4.415867477655410767e-02 -1.032471135258674622e-01 -5.370811093598604202e-03 9.858521632850170135e-03 1.787048727273941040e-01 9.255445748567581177e-02 -1.227611601352691650e-01 -8.374474942684173584e-02 -9.647907689213752747e-03 -1.004515662789344788e-01 1.185567453503608704e-01 -1.186650842428207397e-01 -5.540013685822486877e-02 -9.031425416469573975e-02 3.085217438638210297e-02 1.884360797703266144e-03
-4.179092496633529663e-02 1.949215531349182129e-01 -2.707817256450653076e-01 -1.456975936889648438e-01 -1.833921968936920166e-01 4.780428111553192139e-01 9.552071690559387207e-01 3.629329502582550049e-01 -3.694990277290344238e-01 -8.734599351882934570e-01 -4.845916330814361572e-01 -4.242307841777801514e-01 -5.812211334705352783e-02 2.836411297321319580e-01 3.547363579273223877e-01 2.775630354881286621e-01 -3.411789238452911377e-01 -1.683951169252395630e-01 7.404062747955322266e-01 4.314423203468322754e-01 -1.287897229194641113e-01 -5.867312550544738770e-01 -4.139032363891601562e-01 -1.724794209003448486e-01 4.177363961935043335e-02 8.790087103843688965e-01 7.501229643821716309e-01 8.612593412399291992e-01 -2.138304412364959717e-01 -9.073154926300048828e-01 4.178357776254415512e-03 -1.790785789489746094e-01 -1.000653207302093506e-01 -5.535651445388793945e-01 6.658598780632019043e-02 2.339463382959365845e-01 1.818804070353507996e-02 7.066143155097961426e-01 -3.976595103740692139e-01 1.300033554434776306e-02 -3.544644713401794434e-01 -7.952492833137512207e-01 -3.239720463752746582e-01 3.025773167610168457e-02 -2.148542255163192749e-01 -9.232271462678909302e-02 -7.883255183696746826e-02 -3.896687626838684082e-01 -5.778250470757484436e-02 1.331482678651809692e-01 5.546196699142456055e-01 6.718719601631164551e-01 -7.790415287017822266e-01 -9.987100958824157715e-01 -1.388167977333068848e+00 -1.605946570634841919e-01 8.533380180597305298e-02 -7.698539644479751587e-02 -5.212430953979492188e-01 -1.149416446685791016e+00
-9.682440757751464844e-02 -3.004110455513000488e-01 -2.343883663415908813e-01 6.167250871658325195e-01 1.685434728860855103e-01 -1.140288114547729492e-01 -1.746215820312500000e-01 2.368054352700710297e-02 2.033028453588485718e-01 -4.400458931922912598e-02 -1.209987029433250427e-01 -3.707989454269409180e-01 -1.542424321174621582e+00 -3.425400853157043457e-01 -1.236070394515991211e+00 -6.270120143890380859e-01 5.741880089044570923e-02 4.376854598522186279e-01 6.193552613258361816e-01 5.061880350112915039e-01 6.710364818572998047e-01 1.484951227903366089e-01 1.348644196987152100e-01 -7.728456258773803711e-01 6.387504190206527710e-02 -2.387599647045135498e-01 -3.663710653781890869e-01 2.825621664524078369e-01 3.756071329116821289e-01 8.465024232864379883e-01 8.786659836769104004e-01 5.089635252952575684e-01 4.888349473476409912e-01 3.581945300102233887e-01 -1.160697489976882935e-01 2.304630875587463379e-01 9.546614885330200195e-01 -1.811302155256271362e-01 1.711722463369369507e-01 -4.664927837438881397e-04 7.383506298065185547e-01 7.700981944799423218e-02 5.021084547042846680e-01 7.147145271301269531e-02 1.613984107971191406e-01 7.604903578758239746e-01 5.087211132049560547e-01 -1.372742205858230591e-01 2.272401750087738037e-01 7.054179906845092773e-01 6.755082607269287109e-01 9.808392524719238281e-01 1.112828403711318970e-01 5.283617973327636719e-01 2.670382857322692871e-01 -1.421655714511871338e-01 3.576501309871673584e-01 5.543538331985473633e-01 8.599504232406616211e-01 3.777536749839782715e-01
-1.320513524115085602e-02 5.662975832819938660e-02 7.918881624937057495e-02 -6.614908576011657715e-02 -7.766395807266235352e-02 -3.052091784775257111e-02 -1.081463228911161423e-02 5.243446305394172668e-02 -6.009182706475257874e-02 -9.328951686620712280e-02 1.134293749928474426e-01 1.446131244301795959e-02 8.548113517463207245e-03 -7.637043949216604233e-03 -3.476294502615928650e-02 -3.046052902936935425e-02 -1.253568679094314575e-01 1.155303418636322021e-02 1.984815299510955811e-02 8.553196489810943604e-02 -5.699278041720390320e-02 -1.616925373673439026e-02 -2.410585246980190277e-02 -8.608192950487136841e-02 9.357260167598724365e-02 -3.342366963624954224e-02 -1.163910850882530212e-01 6.481783837080001831e-02 7.432675361633300781e-02 -4.751458391547203064e-02 -7.146184216253459454e-04 -5.220827087759971619e-02 2.675466798245906830e-02 -7.039916515350341797e-02 4.009423777461051941e-02 3.056296892464160919e-02 -2.372059226036071777e-02 -6.534741818904876709e-02 -8.510211855173110962e-02 1.024215221405029297e-01 -6.475802510976791382e-03 -3.386728093028068542e-02 9.233254939317703247e-02 3.153423592448234558e-02 -6.593021005392074585e-02 7.303235586732625961e-03 -1.113354414701461792e-01 4.176180064678192139e-02 8.148446679115295410e-02 -4.089530184864997864e-02 -8.181288838386535645e-02 -7.926367968320846558e-02 -1.010266616940498352e-01 -1.148365661501884460e-01 -8.073257631622254848e-04 4.070794954895973206e-02 -6.135534495115280151e-02 1.000637635588645935e-01 -7.541237771511077881e-02 2.736583910882472992e-02
1.383175551891326904e-01 6.536986231803894043e-01 1.061512529850006104e-01 -1.442850977182388306e-01 -2.133231461048126221e-01 -6.767448782920837402e-02 -9.387623518705368042e-03 6.890113651752471924e-02 -2.407260052859783173e-02 -8.218683302402496338e-03 -7.577482610940933228e-02 2.891471683979034424e-01 -3.547149896621704102e-01 -2.150490693747997284e-02 1.837812215089797974e-01 -1.162274926900863647e-01 -3.581355214118957520e-01 -3.143497705459594727e-01 6.816256791353225708e-02 -1.400331109762191772e-01 -4.756424203515052795e-02 -3.075866103172302246e-01 -2.941268682479858398e-01 2.021410912275314331e-01 -4.891169965267181396e-01 -6.508316844701766968e-02 -7.992170751094818115e-02 -1.668753027915954590e-01 -5.096499994397163391e-02 8.175318129360675812e-03 1.026422902941703796e-01 8.423145115375518799e-02 1.400397866964340210e-01 -1.695596128702163696e-01 -1.208773031830787659e-01 4.479578230530023575e-03 1.803292334079742432e-01 -1.224439144134521484e-01 -2.795315980911254883e-01 -7.764662057161331177e-02 -1.602170467376708984e-01 -2.841528318822383881e-02 1.196228340268135071e-01 -1.314080320298671722e-02 -1.843362599611282349e-01 -1.218834668397903442e-01 -5.739358440041542053e-02 -6.825257092714309692e-02 5.997303724288940430e-01 -1.226928308606147766e-01 -9.224687516689300537e-02 -4.031372666358947754e-01 -1.282506436109542847e-01 3.619317710399627686e-02 6.724961102008819580e-02 1.709756553173065186e-01 -9.096042066812515259e-02 -1.754521876573562622e-01 -2.120363563299179077e-01 5.601934716105461121e-02
3.541683554649353027e-01 -2.753564119338989258e-01 5.843005180358886719e-01 4.892925322055816650e-01 1.514901816844940186e-01 1.374478787183761597e-01 5.204821377992630005e-02 -1.786240637302398682e-01 -7.036520540714263916e-02 -4.174260422587394714e-02 -1.989945583045482635e-02 -5.427975207567214966e-02 -2.001242637634277344e-01 -7.104536145925521851e-02 -1.927162259817123413e-01 8.469728380441665649e-02 2.656653225421905518e-01 2.582735419273376465e-01 7.442928105592727661e-02 1.784757077693939209e-01 -3.957740589976310730e-02 1.196879744529724121e-01 1.718428581953048706e-01 -1.421439051628112793e-01 -3.810874819755554199e-01 -1.907987743616104126e-01 2.409543693065643311e-01 2.910452485084533691e-01 2.109142392873764038e-01 3.751674667000770569e-02 -1.664620935916900635e-01 -1.019961833953857422e-01 1.853979006409645081e-02 7.138035260140895844e-03 2.444763183593750000e-01 -3.624821454286575317e-02 -2.693071663379669189e-01 -1.342774033546447754e-01 4.154831469058990479e-01 3.675684630870819092e-01 3.209359347820281982e-01 1.924441903829574585e-01 6.859730929136276245e-03 -1.092202141880989075e-01 -5.066202580928802490e-02 8.444480597972869873e-02 2.476822733879089355e-01 -2.358810603618621826e-02 1.730134934186935425e-01 -1.638532131910324097e-01 7.223919779062271118e-02 2.064611762762069702e-01 1.023225020617246628e-03 1.720017343759536743e-01 4.110813140869140625e-02 -1.432672794908285141e-02 1.053204536437988281e-01 1.811769157648086548e-01 1.175103634595870972e-01 6.223405525088310242e-02
-3.394584357738494873e-02 1.370411962270736694e-01 -5.146532654762268066e-01 2.377383261919021606e-01 -3.236365616321563721e-01 -2.778925001621246338e-01 -1.790279150009155273e-01 -4.660165905952453613e-01 -6.475296616554260254e-01 -9.920302778482437134e-02 4.703651070594787598e-01 -5.483478307723999023e-01 -1.213228628039360046e-01 4.367572721093893051e-03 -2.179166078567504883e-01 -6.257166266441345215e-01 -1.042549461126327515e-01 2.152960598468780518e-01 3.689640462398529053e-01 -2.541174590587615967e-01 -1.852270811796188354e-01 -5.322495475411415100e-03 9.183624386787414551e-01 -5.425780266523361206e-02 2.526415884494781494e-01 3.730871081352233887e-01 -4.210684821009635925e-02 -7.323589920997619629e-01 3.776977062225341797e-01 5.310471653938293457e-01 3.328127562999725342e-01 -5.107799172401428223e-01 -1.791206300258636475e-01 2.700127959251403809e-01 9.441455602645874023e-01 3.480367660522460938e-01 -4.169498085975646973e-01 -6.304756999015808105e-01 4.525493830442428589e-02 -3.700477778911590576e-01 4.789452534168958664e-03 3.305756747722625732e-01 3.260683715343475342e-01 1.479726433753967285e-01 -2.153641283512115479e-01 -4.141481518745422363e-01 2.213001996278762817e-01 -2.267613261938095093e-02 8.885679394006729126e-02 -1.469566971063613892e-01 -2.356386557221412659e-02 -1.685663908720016479e-01 6.999963521957397461e-01 2.353345453739166260e-01 -5.095990840345621109e-03 -5.387618541717529297e-01 -6.365699768066406250e-01 -5.664915442466735840e-01 3.733585476875305176e-01 5.232964158058166504e-01
1.708181798458099365e-01 3.088570833206176758e-01 -7.891660928726196289e-01 4.974340498447418213e-01 1.056667685508728027e+00 -5.202980041503906250e-01 -7.272533774375915527e-01 -1.802214980125427246e-01 2.087369263172149658e-01 -9.490889310836791992e-02 -2.937660217285156250e-01 6.506252884864807129e-01 2.225631624460220337e-01 -1.562040448188781738e-01 5.719611048698425293e-01 6.178509593009948730e-01 7.219198346138000488e-01 -5.602695345878601074e-01 -7.093869447708129883e-01 -1.002713367342948914e-01 6.738156080245971680e-01 1.128757745027542114e-01 -1.130081042647361755e-01 4.555509090423583984e-01 -5.394752621650695801e-01 2.796663045883178711e-01 7.460018992424011230e-01 1.083039045333862305e+00 9.094249606132507324e-01 -2.733872234821319580e-01 -1.740977317094802856e-01 -2.896633744239807129e-02 8.779516816139221191e-01 3.689822852611541748e-01 -9.661427140235900879e-02 1.776862740516662598e-01 -1.558776944875717163e-01 -4.485426545143127441e-01 -1.870200335979461670e-01 6.176267266273498535e-01 5.946831703186035156e-01 -1.643857061862945557e-01 -2.682642638683319092e-01 4.441452026367187500e-01 1.048033237457275391e+00 4.167530834674835205e-01 1.957290619611740112e-01 -2.596493959426879883e-01 4.701799154281616211e-01 -2.529079020023345947e-01 -5.166381597518920898e-01 8.839697837829589844e-01 1.113620042800903320e+00 2.270695418119430542e-01 7.611019611358642578e-01 8.467866778373718262e-01 8.945689201354980469e-01 9.232612699270248413e-02 -6.186861172318458557e-02 -7.584677636623382568e-02
4.618137776851654053e-01 1.180529296398162842e-01 -1.016072258353233337e-01 4.883034527301788330e-01 1.829332485795021057e-02 7.206733524799346924e-02 4.412799328565597534e-02 5.936339870095252991e-02 1.267517507076263428e-01 2.111992537975311279e-01 1.588384360074996948e-01 7.556459307670593262e-02 -3.582704961299896240e-01 -3.545548319816589355e-01 1.597546637058258057e-01 -6.169308349490165710e-02 3.501476719975471497e-03 -2.204355001449584961e-01 -1.367605477571487427e-01 1.262394338846206665e-01 1.279376726597547531e-02 -9.793869405984878540e-02 -2.774946205317974091e-02 -1.463300734758377075e-01 1.231458708643913269e-01 2.442167326807975769e-02 2.980492711067199707e-01 -1.057664770632982254e-02 -1.045119687914848328e-01 -1.588502228260040283e-01 -1.840589195489883423e-01 -1.705704927444458008e-01 1.411281060427427292e-02 -1.279163509607315063e-01 -2.254364937543869019e-01 2.218873798847198486e-02 -3.532307147979736328e-01 2.671135962009429932e-01 2.939196825027465820e-01 1.693034023046493530e-01 -1.232307180762290955e-01 8.181992173194885254e-02 -2.339926362037658691e-01 -9.757215529680252075e-02 2.469917759299278259e-02 -1.297485977411270142e-01 -1.386495530605316162e-01 9.008811414241790771e-02 4.657497704029083252e-01 1.459127366542816162e-01 3.081417083740234375e-01 2.295505851507186890e-01 1.227391585707664490e-01 2.997249551117420197e-02 -5.681454390287399292e-02 -1.471375226974487305e-01 4.817997291684150696e-02 -8.983413875102996826e-02 1.056673154234886169e-01 3.508392348885536194e-02
-1.328501850366592407e-01 -2.017671614885330200e-01 -5.359990894794464111e-02 1.803387701511383057e-01 -9.010135382413864136e-02 -9.711366146802902222e-02 -9.529796242713928223e-02 2.426059171557426453e-02 4.895009100437164307e-02 1.036743223667144775e-01 4.341743420809507370e-03 3.331995606422424316e-01 -6.518556922674179077e-02 -3.879989385604858398e-01 1.532208323478698730e-01 2.036395817995071411e-01 9.802653640508651733e-02 1.708201691508293152e-02 -1.036884710192680359e-01 -1.305490285158157349e-01 -8.224456757307052612e-02 -1.813295185565948486e-01 1.244581937789916992e-01 5.388239398598670959e-02 -8.615077733993530273e-01 7.089453935623168945e-02 -3.250397741794586182e-01 -1.251273751258850098e-01 1.340650171041488647e-01 2.108143568038940430e-01 4.278671741485595703e-01 4.401442706584930420e-01 3.313527107238769531e-01 1.149939000606536865e-01 4.165846481919288635e-02 1.881074607372283936e-01 2.046757787466049194e-01 -2.002030164003372192e-01 -2.497770041227340698e-01 4.050075411796569824e-01 1.329709589481353760e-01 2.899208068847656250e-01 2.901045382022857666e-01 -1.779689043760299683e-01 5.512220785021781921e-03 1.038282923400402069e-02 -3.701366186141967773e-01 -7.654359936714172363e-02 6.638618111610412598e-01 2.153256833553314209e-01 -1.875706203281879425e-02 -6.750821322202682495e-02 8.370751887559890747e-02 1.537431478500366211e-01 3.317742645740509033e-01 2.156319618225097656e-01 2.508561015129089355e-01 5.485784411430358887e-01 -3.081990033388137817e-02 -1.209162026643753052e-01
4.033737182617187500e-01 4.868294596672058105e-01 1.576445251703262329e-01 4.276396036148071289e-01 1.012029290199279785e+00 3.903214633464813232e-01 5.505426526069641113e-01 -6.203829869627952576e-02 5.628928914666175842e-02 1.161811649799346924e-01 4.677115678787231445e-01 3.163492679595947266e-01 3.795790970325469971e-01 -3.159797191619873047e-01 -3.763006627559661865e-02 2.364976406097412109e-01 7.732024788856506348e-01 3.537673652172088623e-01 7.220844626426696777e-01 -2.348487228155136108e-01 -2.721548080444335938e-01 -1.440210044384002686e-01 1.314383149147033691e-01 2.025955319404602051e-01 -5.041835363954305649e-03 -1.510674655437469482e-01 -2.642773091793060303e-01 4.428642988204956055e-01 4.410039186477661133e-01 7.406070083379745483e-02 3.638679683208465576e-01 -9.500534273684024811e-03 -3.087791502475738525e-01 8.852661401033401489e-02 9.965658187866210938e-02 9.379039518535137177e-03 -2.921696305274963379e-01 -4.476944506168365479e-01 -3.566931188106536865e-01 -1.444000154733657837e-01 3.746956288814544678e-01 3.337907493114471436e-01 2.850918173789978027e-01 1.982376277446746826e-01 -3.098822198808193207e-03 7.270560413599014282e-02 1.659882217645645142e-01 -7.311592996120452881e-02 -1.122739911079406738e-01 -3.569337129592895508e-01 -6.720661520957946777e-01 5.675064027309417725e-02 7.328008413314819336e-01 4.265473484992980957e-01 2.329059094190597534e-01 2.258604913949966431e-01 -6.081730127334594727e-02 2.250505089759826660e-01 2.619690895080566406e-01 5.293086916208267212e-02
9.091959148645401001e-02 2.945188879966735840e-01 2.697179913520812988e-01 5.742377042770385742e-01 1.293322294950485229e-01 3.975552320480346680e-01 -1.391755342483520508e-01 -2.866128385066986084e-01 1.441233009099960327e-01 5.426381230354309082e-01 4.418307244777679443e-01 -2.805587649345397949e-01 5.583789348602294922e-01 -7.424341440200805664e-01 3.902287781238555908e-01 2.744143009185791016e-01 3.230135142803192139e-02 6.771716475486755371e-01 -1.417909264564514160e-01 -2.543215453624725342e-01 -1.436853557825088501e-01 2.342640422284603119e-02 8.125863969326019287e-02 7.222399860620498657e-02 1.574919670820236206e-01 -6.719566583633422852e-01 2.798483371734619141e-01 4.227879047393798828e-01 -3.903636336326599121e-02 2.314222455024719238e-01 -1.874447464942932129e-01 8.408749103546142578e-02 -3.073222637176513672e-01 -4.490418732166290283e-02 9.003080427646636963e-03 -1.223338618874549866e-01 -3.793220967054367065e-02 -4.421494305133819580e-01 4.361952543258666992e-01 4.357372224330902100e-01 -2.112206667661666870e-01 1.104147732257843018e-01 7.056922465562820435e-02 1.250913133844733238e-03 -1.644443348050117493e-02 4.829087257385253906e-01 3.056824803352355957e-01 6.540477275848388672e-01 -9.913840293884277344e-01 -2.214065641164779663e-01 -4.716230928897857666e-02 4.207275509834289551e-01 -2.303321063518524170e-01 -1.856912225484848022e-01 -1.100283022969961166e-02 -7.760037481784820557e-02 1.296624243259429932e-01 3.050864636898040771e-01 6.458537578582763672e-01 5.764743685722351074e-01
3.740022182464599609e-01 7.982394695281982422e-01 -1.047589331865310669e-01 -4.174698591232299805e-01 -1.635166704654693604e-01 3.412999808788299561e-01 3.387561142444610596e-01 2.683423459529876709e-01 -4.977852851152420044e-02 1.850817054510116577e-01 4.196599721908569336e-01 2.027756422758102417e-01 2.444130927324295044e-01 4.523362517356872559e-01 -3.555115461349487305e-01 -5.207023024559020996e-01 -3.869014382362365723e-01 3.534279167652130127e-01 1.326713263988494873e-01 4.919581860303878784e-02 5.120786279439926147e-02 -1.716578602790832520e-01 -1.297854445874691010e-02 -5.092873051762580872e-02 1.376281976699829102e-01 2.163294106721878052e-01 -1.958710402250289917e-01 -3.115792572498321533e-01 -4.332698583602905273e-01 -7.741218060255050659e-02 4.072656929492950439e-01 3.821946382522583008e-01 -1.008781865239143372e-01 -7.184214144945144653e-02 1.976596117019653320e-01 4.739955365657806396e-01 8.089335560798645020e-01 2.944648265838623047e-01 3.346956074237823486e-01 2.481496334075927734e-01 -2.048623561859130859e-01 -1.812952905893325806e-01 6.426774710416793823e-02 -2.244311273097991943e-01 -1.989204995334148407e-02 -2.887666523456573486e-01 1.837410032749176025e-01 6.006665229797363281e-01 7.048575878143310547e-01 5.258057713508605957e-01 4.727560877799987793e-01 7.043687999248504639e-02 -4.999410808086395264e-01 -2.604536414146423340e-01 1.341796964406967163e-01 -8.809166401624679565e-02 5.457144975662231445e-02 -3.038939833641052246e-01 1.976636648178100586e-01 5.133939385414123535e-01
2.457760646939277649e-02 -2.352939695119857788e-01 3.051710724830627441e-01 3.832402229309082031e-01 -9.328319877386093140e-02 -7.103373408317565918e-01 -1.147156000137329102e+00 -5.371745228767395020e-01 5.626330971717834473e-01 5.109998583793640137e-01 6.103979349136352539e-01 6.793757677078247070e-01 -7.320575118064880371e-01 -3.354135155677795410e-01 1.228480935096740723e-01 4.113026857376098633e-01 1.374733746051788330e-01 -4.075685441493988037e-01 -1.095048263669013977e-01 -2.129123061895370483e-01 3.775613903999328613e-01 6.942692995071411133e-01 1.082815647125244141e+00 1.562193036079406738e-01 -2.633896470069885254e-02 2.116608321666717529e-01 1.185295134782791138e-01 3.988820910453796387e-01 -1.174257975071668625e-02 -2.045317590236663818e-01 -2.044995278120040894e-01 2.403322607278823853e-01 5.093010663986206055e-01 6.783682703971862793e-01 3.738441765308380127e-01 -7.704621553421020508e-02 3.754914104938507080e-01 -4.717570543289184570e-01 -2.822035253047943115e-01 -3.054459989070892334e-01 -2.031465917825698853e-01 -4.679370522499084473e-01 4.993843846023082733e-03 3.300072550773620605e-01 6.960397958755493164e-01 6.835041642189025879e-01 3.542038500308990479e-01 -5.338163375854492188e-01 2.004388719797134399e-01 2.424866557121276855e-01 4.721450209617614746e-01 6.683538109064102173e-02 -3.394114971160888672e-01 1.090105101466178894e-01 -8.071535825729370117e-02 9.684922546148300171e-02 4.809460639953613281e-01 7.601902484893798828e-01 3.060917854309082031e-01 1.867738962173461914e-01
4.529944062232971191e-02 4.621937870979309082e-02 -9.338964521884918213e-02 -7.954271137714385986e-02 -8.285453915596008301e-02 -1.454158127307891846e-02 1.003635823726654053e-01 -5.867958813905715942e-02 6.237652897834777832e-02 2.888225018978118896e-02 -5.447153747081756592e-02 2.760879695415496826e-02 2.818852663040161133e-03 -1.111456230282783508e-01 2.718064188957214355e-02 1.101427674293518066e-01 -1.253709942102432251e-02 1.060679405927658081e-01 -4.475938528776168823e-02 -7.230073213577270508e-02 -3.721922636032104492e-03 1.008470803499221802e-01 5.176663398742675781e-03 -1.122923940420150757e-02 3.865078091621398926e-03 7.630403339862823486e-02 -1.142275631427764893e-01 -2.783531695604324341e-02 -9.078960120677947998e-02 1.999713480472564697e-02 -1.054619252681732178e-02 1.001332402229309082e-01 1.002173423767089844e-01 5.818247795104980469e-03 7.620751857757568359e-03 -7.316538691520690918e-02 -3.505495935678482056e-02 1.047606319189071655e-01 8.954912424087524414e-03 6.347134709358215332e-03 5.327180027961730957e-02 -3.643839806318283081e-02 -1.245808601379394531e-01 -5.864597856998443604e-03 -6.534536182880401611e-02 8.635118603706359863e-03 3.695358335971832275e-02 3.406490385532379150e-02 1.100744307041168213e-01 -1.034666150808334351e-01 -1.084252372384071350e-01 -5.425333976745605469e-02 8.924525976181030273e-02 -4.444105923175811768e-02 -6.459012627601623535e-03 -2.456960827112197876e-02 1.184411942958831787e-01 3.384897112846374512e-02 -1.511375606060028076e-02 -4.193839430809020996e-02
8.811314404010772705e-02 5.322581529617309570e-02 -8.970254659652709961e-02 8.636520802974700928e-02 -4.038126766681671143e-02 -1.132147312164306641e-01 -5.655246227979660034e-02 -2.693206071853637695e-02 4.990141093730926514e-02 -8.282075822353363037e-02 9.782534837722778320e-02 1.092961430549621582e-02 -4.685486853122711182e-02 -1.213050037622451782e-01 5.248327553272247314e-02 1.079732179641723633e-01 -3.169846534729003906e-02 -7.498472929000854492e-02 8.068607747554779053e-02 -9.811168164014816284e-02 -5.825322866439819336e-02 7.781302928924560547e-02 -1.072067320346832275e-01 9.025776386260986328e-02 1.152217537164688110e-01 -1.090323999524116516e-01 2.840785682201385498e-02 7.425269484519958496e-02 1.022021919488906860e-01 -1.352084428071975708e-02 -1.645550876855850220e-02 7.015383243560791016e-02 -1.154187098145484924e-01 -1.985228061676025391e-02 -8.877605944871902466e-02 9.070877730846405029e-02 3.397180140018463135e-02 6.111730635166168213e-02 -1.133485585451126099e-01 -5.629695951938629150e-02 -3.701446205377578735e-02 6.440407037734985352e-02 4.586063325405120850e-02 9.693989157676696777e-02 6.769478321075439453e-02 2.161476016044616699e-02 2.223676443099975586e-02 5.138784646987915039e-03 8.002609014511108398e-02 -7.186666131019592285e-02 -6.068114191293716431e-02 1.073363274335861206e-01 -7.864131778478622437e-02 7.687242329120635986e-02 8.966438472270965576e-02 9.862929582595825195e-03 -8.556766062974929810e-02 9.225992858409881592e-02 -5.625933408737182617e-03 -1.754695922136306763e-02
2.162333726882934570e-01 -1.256282478570938110e-01 3.712608292698860168e-02 -9.684626758098602295e-02 1.096722185611724854e-01 7.161134481430053711e-02 -6.121847033500671387e-02 3.578200563788414001e-02 -1.220980584621429443e-01 6.733890622854232788e-02 4.031443595886230469e-02 3.826809674501419067e-02 1.339555680751800537e-01 -5.810439214110374451e-02 9.893906861543655396e-02 -9.380070865154266357e-02 -1.203882917761802673e-01 6.605529785156250000e-02 -9.700669348239898682e-02 1.201610937714576721e-01 6.224971148185431957e-04 1.123620718717575073e-01 1.054447665810585022e-01 8.520651608705520630e-02 -4.145246371626853943e-02 1.120000556111335754e-01 -2.931692451238632202e-02 -4.105676710605621338e-02 -6.223639473319053650e-02 -6.033735349774360657e-02 -1.066884770989418030e-01 -3.315619751811027527e-02 8.322969079017639160e-02 -8.594767004251480103e-02 6.228423491120338440e-02 3.414439782500267029e-02 -3.540489450097084045e-02 -6.247259303927421570e-02 1.014837250113487244e-01 6.775005161762237549e-02 -3.697630763053894043e-02 5.604712292551994324e-02 1.067545786499977112e-01 -2.833827026188373566e-02 -3.916271403431892395e-02 9.246634691953659058e-02 -7.236398011445999146e-02 1.289363354444503784e-01 1.869777217507362366e-02 -1.161411926150321960e-01 -8.620549738407135010e-02 -2.778191119432449341e-02 -1.235886216163635254e-01 1.051491405814886093e-02 -1.159961447119712830e-01 -1.069013252854347229e-01 9.891771525144577026e-02 -6.319497525691986084e-02 -7.899165898561477661e-02 4.551982879638671875e-02
1.828668415546417236e-01 -4.989866167306900024e-02 8.901315927505493164e-02 -7.283673882484436035e-01 -1.491895914077758789e-01 -2.635771930217742920e-01 8.613701909780502319e-02 -3.423800319433212280e-02 -1.509865075349807739e-01 -1.566670089960098267e-01 2.912749052047729492e-01 3.221827745437622070e-01 8.225464224815368652e-01 6.945555657148361206e-02 -4.028102457523345947e-01 -2.587992846965789795e-01 1.032190099358558655e-01 -2.349781841039657593e-01 6.641787886619567871e-01 2.713754773139953613e-01 7.059865165501832962e-03 7.375830411911010742e-01 7.992334961891174316e-01 2.657904289662837982e-02 -4.098348915576934814e-01 -4.979348778724670410e-01 -1.982572972774505615e-01 3.002749979496002197e-01 2.193557769060134888e-01 2.190396338701248169e-01 5.858713388442993164e-01 6.362143903970718384e-02 -2.588540315628051758e-01 3.600401282310485840e-01 3.914896845817565918e-01 -2.837223410606384277e-01 7.307694554328918457e-01 -4.260894060134887695e-01 -3.438536524772644043e-01 -5.789143443107604980e-01 1.126807704567909241e-01 3.369102999567985535e-02 2.482312917709350586e-01 -4.591846466064453125e-01 1.049336418509483337e-01 2.082225829362869263e-01 2.209083288908004761e-01 -5.499863028526306152e-01 -6.260980367660522461e-01 -3.678145110607147217e-01 1.298855394124984741e-01 5.934122800827026367e-01 1.419591158628463745e-01 5.570812821388244629e-01 4.163477122783660889e-01 2.765228748321533203e-01 3.087000362575054169e-02 1.827729344367980957e-01 -2.007691562175750732e-01 -4.417765140533447266e-01
-5.727713108062744141e-01 -3.390159010887145996e-01 4.163507521152496338e-01 2.322500944137573242e-01 -8.236263692378997803e-02 -2.586605846881866455e-01 -4.475305676460266113e-01 -3.660615384578704834e-01 7.376945577561855316e-03 2.418744377791881561e-02 -3.291287645697593689e-02 -5.940624475479125977e-01 1.008194219321012497e-02 7.801782488822937012e-01 2.619941830635070801e-01 4.958305060863494873e-01 4.828296899795532227e-01 -1.885040551424026489e-01 1.773073524236679077e-01 -1.211088076233863831e-01 5.593462586402893066e-01 4.083786904811859131e-01 4.723405838012695312e-01 3.122797012329101562e-01 9.179207086563110352e-01 5.407750606536865234e-02 7.968039251863956451e-03 5.171167477965354919e-02 3.127493560314178467e-01 -6.899336725473403931e-02 -2.964118421077728271e-01 -4.288979470729827881e-01 -2.389126271009445190e-01 4.679934084415435791e-01 7.124602198600769043e-01 1.628222763538360596e-01 -4.577485024929046631e-01 3.737818002700805664e-01 9.579547494649887085e-02 -2.568333037197589874e-02 1.217499673366546631e-01 -2.301668077707290649e-01 -5.812070965766906738e-01 -5.573100447654724121e-01 -6.654832363128662109e-01 2.330064922571182251e-01 9.294527173042297363e-01 4.533642530441284180e-01 -1.932387202978134155e-01 5.266845971345901489e-02 -3.419115245342254639e-01 4.335684478282928467e-01 2.400979995727539062e-01 -8.123870939016342163e-03 -7.700375318527221680e-01 -8.210865259170532227e-01 -3.658412098884582520e-01 -7.806690782308578491e-02 4.461598992347717285e-01 1.132752820849418640e-01
-1.598674245178699493e-02 7.085880041122436523e-01 -6.430317163467407227e-01 -5.706644654273986816e-01 -7.950189113616943359e-01 -9.734932333230972290e-02 8.871874958276748657e-02 -5.375353991985321045e-02 6.488203536719083786e-03 -3.866186365485191345e-02 -1.253453195095062256e-01 -1.232190206646919250e-01 2.171266227960586548e-01 -5.437162145972251892e-02 -1.603710278868675232e-02 -1.106798276305198669e-01 -6.418916583061218262e-01 6.889916211366653442e-02 -4.902799427509307861e-02 -1.417295932769775391e-01 -2.707532644271850586e-01 -1.415453255176544189e-01 4.232727289199829102e-01 2.153219133615493774e-01 -4.996319413185119629e-01 3.368467390537261963e-01 2.474129199981689453e-01 2.405841350555419922e-01 -1.632630825042724609e-01 1.546799540519714355e-01 1.097801253199577332e-01 2.586396336555480957e-01 -1.287568360567092896e-01 -3.669238686561584473e-01 1.381979882717132568e-01 -1.438574939966201782e-01 -5.157901644706726074e-01 8.368825167417526245e-02 2.787057459354400635e-01 5.734134316444396973e-01 1.394036263227462769e-01 4.342504143714904785e-01 3.551822602748870850e-01 2.135725319385528564e-01 1.711417138576507568e-01 1.117935106158256531e-01 4.358213767409324646e-02 -3.802707195281982422e-01 4.710001945495605469e-01 -3.722488284111022949e-01 -5.116508007049560547e-01 2.313877791166305542e-01 -1.150113967014476657e-04 6.217219829559326172e-01 3.420339524745941162e-01 3.515167161822319031e-02 4.129978716373443604e-01 4.236813783645629883e-01 -3.408731520175933838e-01 -1.131975650787353516e+00
1.807249486446380615e-01 1.117119073867797852e+00 2.343285828828811646e-01 3.919506371021270752e-01 -5.527301505208015442e-02 -1.049777194857597351e-01 -1.322862356901168823e-01 -3.398737013339996338e-01 -5.932143703103065491e-02 4.409780800342559814e-01 7.626522183418273926e-01 2.126782089471817017e-01 -3.632162809371948242e-01 2.390314191579818726e-01 -1.842740625143051147e-01 -8.851353824138641357e-02 -3.317077830433845520e-02 -9.660208225250244141e-02 9.605076164007186890e-02 -4.675985574722290039e-01 -2.566965818405151367e-01 1.874940842390060425e-01 6.725333929061889648e-01 2.366794347763061523e-01 -3.267055451869964600e-01 -4.848092198371887207e-01 -4.961282610893249512e-01 -3.450614213943481445e-01 -2.992713749408721924e-01 -4.022719562053680420e-01 -5.166120827198028564e-02 -3.548445701599121094e-01 -7.038971185684204102e-01 -1.122015714645385742e-01 2.437700033187866211e-01 1.600154116749763489e-02 -3.843388259410858154e-01 -3.995235264301300049e-01 -2.042957097291946411e-01 -1.618720591068267822e-01 -4.760449826717376709e-01 -5.111863613128662109e-01 -2.440073043107986450e-01 -5.499441623687744141e-01 -5.064674019813537598e-01 -3.062123656272888184e-01 -1.047590002417564392e-01 1.387612521648406982e-01 -6.123363971710205078e-02 -7.266779541969299316e-01 -8.263987302780151367e-01 -6.441149115562438965e-01 -4.491972923278808594e-01 -3.366416394710540771e-01 -3.421317338943481445e-01 -5.882129073143005371e-01 -3.937194645404815674e-01 -1.868931949138641357e-01 -1.210917979478836060e-01 1.642274111509323120e-01
-1.137128770351409912e-01 1.561227560043334961e+00 -6.226438879966735840e-01 -3.767726719379425049e-01 -2.293462604284286499e-01 -7.528081536293029785e-01 -7.723908424377441406e-01 2.403761446475982666e-01 -2.469042837619781494e-01 -9.061907529830932617e-01 -4.831293821334838867e-01 -1.101458430290222168e+00 -6.258856505155563354e-02 1.394620418548583984e+00 -5.985101461410522461e-01 5.282803624868392944e-02 3.480110466480255127e-01 -1.008034467697143555e+00 -8.888165354728698730e-01 1.882066875696182251e-01 2.439090013504028320e-01 -5.247154831886291504e-01 -5.545164346694946289e-01 -5.351172015070915222e-02 -3.187722340226173401e-02 9.766544103622436523e-01 -5.692025423049926758e-01 1.310240626335144043e-01 1.669842898845672607e-01 -1.181440114974975586e+00 -1.085230588912963867e+00 -6.106552481651306152e-01 -2.013077735900878906e-01 -8.445129990577697754e-01 -7.545201778411865234e-01 -3.463744372129440308e-02 8.100632578134536743e-02 6.630929708480834961e-01 -5.289620757102966309e-01 7.359584420919418335e-02 2.677215635776519775e-01 -7.881722450256347656e-01 -5.988876223564147949e-01 -9.139842540025711060e-02 4.899340271949768066e-01 -4.942316114902496338e-01 -7.379934191703796387e-01 3.927300870418548584e-01 8.405185304582118988e-03 6.590401530265808105e-01 -1.390221714973449707e+00 -1.840894222259521484e-01 3.485215902328491211e-01 -1.087124705314636230e+00 -1.450893431901931763e-01 4.036321341991424561e-01 4.424470961093902588e-01 -4.722299277782440186e-01 -2.432941943407058716e-01 2.062536925077438354e-01
9.198809862136840820e-01 -1.601391732692718506e-01 -1.006903871893882751e-01 -1.244208961725234985e-01 -1.000972464680671692e-01 1.047349348664283752e-01 1.572816073894500732e-01 1.657570749521255493e-01 7.183194905519485474e-02 -1.484540104866027832e-01 -2.228208631277084351e-01 -6.141917034983634949e-02 -2.377671003341674805e-01 -3.807131946086883545e-02 1.562612503767013550e-01 6.367284804582595825e-02 -1.528527680784463882e-02 5.995046719908714294e-02 -4.010444134473800659e-02 -1.173882782459259033e-01 -1.482142210006713867e-01 -2.557759359478950500e-02 7.770190387964248657e-02 1.228163838386535645e-01 6.628460288047790527e-01 -1.852532923221588135e-01 -4.251419752836227417e-02 -1.933615468442440033e-02 -1.814897358417510986e-02 5.193546414375305176e-03 2.612274326384067535e-02 4.466505348682403564e-02 -1.353621631860733032e-01 -7.026233524084091187e-02 -1.747027784585952759e-01 -1.202112659811973572e-01 -5.329033136367797852e-01 1.339091211557388306e-01 1.636817902326583862e-01 8.804171346127986908e-03 1.353618055582046509e-01 4.171517118811607361e-02 4.620819911360740662e-02 9.510853141546249390e-02 -3.424614667892456055e-02 8.008606731891632080e-02 1.532763540744781494e-01 9.059980511665344238e-03 1.787282675504684448e-01 1.702729165554046631e-01 -1.307985186576843262e-02 -1.044450029730796814e-01 5.094614997506141663e-02 1.038226764649152756e-02 9.953582286834716797e-02 7.647321373224258423e-02 -4.390066489577293396e-02 -1.117298081517219543e-01 7.425404340028762817e-02 4.909272305667400360e-03
6.268673110753297806e-03 1.214316561818122864e-01 1.018498465418815613e-02 -1.042034998536109924e-01 -3.910396248102188110e-03 3.547305613756179810e-02 7.531218975782394409e-02 3.629243467003107071e-03 1.048298832029104233e-02 -2.677806466817855835e-02 3.732969239354133606e-02 1.240207329392433167e-01 -1.182895302772521973e-01 -6.398376077413558960e-02 8.066309988498687744e-02 1.449495460838079453e-02 -1.132014319300651550e-01 -4.574187844991683960e-02 -8.119212090969085693e-02 4.145631194114685059e-02 8.352298289537429810e-03 1.108830273151397705e-01 -7.165919244289398193e-02 -9.569792449474334717e-02 9.073545783758163452e-02 -1.683408766984939575e-02 2.388789877295494080e-02 2.491550333797931671e-02 -9.132350981235504150e-02 -1.059449464082717896e-01 -1.221309825778007507e-01 -3.986999392509460449e-02 -1.166238784790039062e-01 7.635337114334106445e-02 3.730199486017227173e-02 3.215081244707107544e-02 -3.510730806738138199e-03 -9.095259755849838257e-02 3.431916236877441406e-02 -6.826665252447128296e-02 -1.124845296144485474e-01 2.024076646193861961e-03 -3.710854332894086838e-03 3.656343743205070496e-02 -5.436609685420989990e-02 -2.998325787484645844e-02 2.136943116784095764e-02 3.287698701024055481e-02 -1.584305241703987122e-02 7.123228907585144043e-02 -5.296304076910018921e-02 -2.390014939010143280e-02 1.784376241266727448e-02 -6.547381728887557983e-02 -8.978486061096191406e-02 -1.088777109980583191e-01 1.202716231346130371e-01 -8.458943665027618408e-02 1.140684708952903748e-01 5.921882577240467072e-03
9.162443876266479492e-02 -1.176394820213317871e-01 8.872959017753601074e-02 -3.055806457996368408e-02 -2.523600310087203979e-02 -5.768075585365295410e-02 6.702154874801635742e-03 6.165236234664916992e-02 -3.581546247005462646e-02 -3.258264064788818359e-02 1.804730296134948730e-02 6.870603561401367188e-02 -8.949486911296844482e-02 -3.355532884597778320e-03 -2.712163329124450684e-02 6.379622220993041992e-02 7.863721251487731934e-02 7.361106574535369873e-02 1.014212965965270996e-01 -1.108541563153266907e-01 1.182783693075180054e-01 1.305724680423736572e-02 8.513957262039184570e-02 -1.068875193595886230e-03 6.536863744258880615e-02 -1.104996502399444580e-01 5.736412107944488525e-02 -1.190613508224487305e-01 1.146815717220306396e-02 -4.547089338302612305e-02 -8.586981892585754395e-02 -7.497067004442214966e-02 -2.404501289129257202e-02 1.258943974971771240e-02 -5.849092453718185425e-02 -2.397190034389495850e-02 4.567913711071014404e-02 -4.208228737115859985e-02 9.139327704906463623e-02 1.170876622200012207e-02 9.291392564773559570e-02 -3.206644952297210693e-02 -1.264802813529968262e-01 4.281550645828247070e-02 2.305741608142852783e-02 -9.400342404842376709e-02 6.121598184108734131e-02 -1.123162358999252319e-01 6.108270585536956787e-02 4.680995643138885498e-02 -1.113642230629920959e-01 8.504152297973632812e-03 -8.429774641990661621e-02 5.943498015403747559e-02 1.217776685953140259e-01 -3.430959582328796387e-02 -7.817807793617248535e-02 2.329921722412109375e-02 -4.605798423290252686e-02 1.061771214008331299e-01
1.303881108760833740e-01 4.749991595745086670e-01 2.650549709796905518e-01 7.417389005422592163e-02 7.108486443758010864e-02 -1.022092029452323914e-01 -1.957188993692398071e-01 -2.274671494960784912e-01 -4.129331186413764954e-02 -2.298070304095745087e-02 7.267515361309051514e-02 -2.502096891403198242e-01 1.505426764488220215e-01 3.608716726303100586e-01 1.856071501970291138e-01 6.863539572805166245e-03 3.340674191713333130e-02 -1.423138976097106934e-01 -9.294317662715911865e-02 -3.704942464828491211e-01 -1.308121532201766968e-01 -5.267402902245521545e-02 1.859413683414459229e-01 4.042579978704452515e-02 4.101268351078033447e-01 4.513774812221527100e-01 -2.009351551532745361e-02 -2.627910077571868896e-01 -1.401670426130294800e-01 -9.350223839282989502e-02 -1.623961478471755981e-01 -9.288094937801361084e-02 -6.246855948120355606e-03 1.262518167495727539e-01 1.315840184688568115e-01 1.975502371788024902e-01 -7.292725443840026855e-01 1.250340044498443604e-01 -7.272584736347198486e-02 4.735491052269935608e-02 -3.816926479339599609e-02 -9.525801241397857666e-02 -4.125962033867835999e-02 -2.375776171684265137e-01 -6.684460490942001343e-02 8.973461389541625977e-02 1.072759181261062622e-01 8.088194578886032104e-02 -8.643416166305541992e-01 -3.318893909454345703e-02 -2.854376137256622314e-01 1.423170119524002075e-01 9.881705045700073242e-02 -1.297260969877243042e-01 4.048397019505500793e-02 -5.502506345510482788e-02 3.914755210280418396e-02 1.421792954206466675e-01 3.711629658937454224e-02 3.658654540777206421e-02
2.853343188762664795e-01 2.796373665332794189e-01 -2.150866836309432983e-01 -2.211443707346916199e-02 3.101335465908050537e-01 1.210738569498062134e-01 9.826838225126266479e-02 1.563049666583538055e-02 5.586537532508373260e-03 2.012908160686492920e-01 -8.431141823530197144e-02 -3.880504667758941650e-01 1.413493603467941284e-01 -2.020535916090011597e-01 -8.320612460374832153e-02 -2.456715516746044159e-02 1.300348192453384399e-01 3.111501224339008331e-02 -9.575436264276504517e-02 -3.487112224102020264e-01 -1.096669435501098633e-01 -8.796859532594680786e-03 2.455512136220932007e-01 1.124800220131874084e-01 -8.242008090019226074e-01 1.366462707519531250e-01 5.427240729331970215e-01 3.459831327199935913e-02 1.754013635218143463e-02 8.663795888423919678e-03 -2.566106915473937988e-01 -4.865663349628448486e-01 -7.374192476272583008e-01 -2.080895453691482544e-01 -3.571167290210723877e-01 -4.788835048675537109e-01 8.787200450897216797e-01 8.714537620544433594e-01 5.318004488945007324e-01 3.284479081630706787e-01 -3.586842864751815796e-02 -1.436667144298553467e-01 -3.568555116653442383e-01 -3.400101959705352783e-01 -4.030288755893707275e-01 -1.506211608648300171e-01 1.150177344679832458e-01 1.371668130159378052e-01 8.712655901908874512e-01 3.862720727920532227e-01 -1.030332446098327637e-01 6.134908199310302734e-01 4.023467302322387695e-01 3.891481757164001465e-01 -2.039953470230102539e-01 -1.581118255853652954e-01 -2.432937324047088623e-01 6.277427077293395996e-02 1.304944455623626709e-01 2.206605970859527588e-01
3.479675054550170898e-01 -4.448408633470535278e-02 3.433037176728248596e-02 -9.948629885911941528e-03 -2.300231717526912689e-02 -1.618134528398513794e-01 -5.666451528668403625e-02 -2.973672375082969666e-02 -5.039558187127113342e-02 -6.339404731988906860e-02 3.032187186181545258e-02 -4.652890563011169434e-02 3.458449244499206543e-01 8.067170530557632446e-02 8.999783545732498169e-02 -1.122740581631660461e-01 -3.355471789836883545e-02 3.251048177480697632e-02 1.364671625196933746e-02 5.638021975755691528e-02 8.521529287099838257e-02 -3.793564066290855408e-02 -9.259581565856933594e-02 -1.021681800484657288e-01 -2.469935454428195953e-03 -1.148778665810823441e-02 1.059328690171241760e-01 8.945970237255096436e-02 -1.612659171223640442e-02 8.479608595371246338e-02 3.211819380521774292e-02 4.830370470881462097e-02 8.937936276197433472e-02 -7.279475778341293335e-02 2.524602459743618965e-03 5.161720514297485352e-02 3.322341442108154297e-01 2.571631968021392822e-02 -1.573405810631811619e-03 -1.232984662055969238e-01 5.562426522374153137e-02 2.736890874803066254e-02 -5.596539005637168884e-02 -1.403389871120452881e-02 5.484582111239433289e-02 1.062397956848144531e-01 -7.541662454605102539e-02 2.647833898663520813e-02 -6.511963903903961182e-02 4.221594333648681641e-02 6.676241755485534668e-02 -2.663046121597290039e-03 1.102640405297279358e-01 -9.203208237886428833e-02 7.995117455720901489e-02 1.140122637152671814e-01 7.956612110137939453e-02 -3.727629780769348145e-02 1.199717074632644653e-02 7.888089865446090698e-02
