3.872067928314208984e-01 -6.111697107553482056e-02 -2.233093082904815674e-01 4.619669914245605469e-01 1.171106100082397461e+00 -1.126772761344909668e+00 3.482741415500640869e-01 -5.387505888938903809e-01 -3.390954136848449707e-01 2.441329061985015869e-01 -6.734931468963623047e-01 2.414859294891357422e+00 -4.951909482479095459e-01 -4.678044319152832031e-01 -7.910641431808471680e-01 -1.215804368257522583e-01 -3.426938056945800781e+00 2.447846889495849609e+00 -9.616746306419372559e-01 -5.309540629386901855e-01 2.441320717334747314e-01 -5.502319931983947754e-01 1.007017120718955994e-01 2.739899754524230957e-01 1.030056834220886230e+00 -1.134615465998649597e-01 1.409525990486145020e+00 1.060930788516998291e-01 3.348567187786102295e-01 2.089798450469970703e+00 2.153708040714263916e-02 1.385843753814697266e+00 2.866584062576293945e-01 2.774962186813354492e-01 -6.368920207023620605e-02 -2.092871665954589844e-01 -8.948665112257003784e-02 1.545454710721969604e-01 -1.127714276313781738e+00 -2.836539745330810547e-01 -9.846755117177963257e-02 8.692403435707092285e-01 1.265765070915222168e+00 -2.595109701156616211e+00 -7.382682561874389648e-01 -1.201209187507629395e+00 -1.936919987201690674e-02 -1.147714495658874512e+00 9.840242266654968262e-01 -1.306066393852233887e+00 -1.519678980112075806e-01 -2.662135660648345947e-02 -5.657228454947471619e-02 -2.658719755709171295e-02 -1.559341311454772949e+00 -4.889484643936157227e-01 3.988095521926879883e-01 -2.753304004669189453e+00 -2.560664653778076172e+00 1.309868454933166504e+00 -1.201265305280685425e-01 -5.584387853741645813e-02 -1.294470667839050293e+00 -1.612160205841064453e-01 3.117201328277587891e-01 1.300287097692489624e-01 -5.409234166145324707e-01 1.658615112304687500e+00 -3.870377779006958008e+00 -2.845518290996551514e-01 2.499494552612304688e+00 1.218524694442749023e+00 1.308861851692199707e+00 -8.317182064056396484e-01 -3.185561597347259521e-01 6.141232252120971680e-01 8.388040661811828613e-01 -8.629174828529357910e-01 -5.416761711239814758e-02 3.339960575103759766e-01 3.993152081966400146e-01 -3.464197516441345215e-01 -1.272383332252502441e-01 1.899087667465209961e+00 6.921892762184143066e-01 -2.360108308494091034e-02 1.757562533020973206e-02 -5.259654521942138672e-01 1.975633740425109863e+00 -5.622671246528625488e-01 -4.581835269927978516e-01 4.836202561855316162e-01 -4.276011586189270020e-01 4.958730936050415039e-01 2.599794626235961914e+00 1.311427205801010132e-01 -3.268652260303497314e-01 -6.202428936958312988e-01 1.066081970930099487e-01 1.039207726716995239e-01
-1.163811564445495605e+00 -4.290492460131645203e-02 2.352262437343597412e-01 -5.927848443388938904e-02 4.640251696109771729e-01 7.017042040824890137e-01 2.376185208559036255e-01 -3.703364357352256775e-02 -1.156650334596633911e-01 -1.039730429649353027e+00 -1.447919249534606934e+00 -2.296807169914245605e-01 -1.527423024177551270e+00 -2.702553868293762207e-01 -4.185268655419349670e-02 -4.265778660774230957e-01 8.362870216369628906e-01 9.374279975891113281e-01 -1.862337827682495117e+00 -1.501849412918090820e+00 1.433835387229919434e+00 2.857117354869842529e-01 -1.414145231246948242e+00 -3.917596116662025452e-02 4.887369871139526367e-01 -2.900703251361846924e-01 6.637181043624877930e-01 -4.623008370399475098e-01 -9.365974068641662598e-01 6.875009536743164062e-01 5.902080610394477844e-02 2.411781847476959229e-01 2.366865985095500946e-03 -2.118009775876998901e-01 -2.629540301859378815e-02 7.132146358489990234e-01 5.721057578921318054e-02 -3.063443489372730255e-02 3.564471602439880371e-01 5.601027607917785645e-01 7.695759832859039307e-02 -5.504385232925415039e-01 -4.596130251884460449e-01 -8.488939404487609863e-01 8.225457072257995605e-01 -4.267632961273193359e-01 9.626058936119079590e-01 -1.931210756301879883e+00 1.194920182228088379e+00 -5.310126766562461853e-02 -1.958817094564437866e-01 4.452226310968399048e-02 8.593637496232986450e-02 -8.126857131719589233e-02 -7.327597737312316895e-01 9.884134531021118164e-01 -2.228186726570129395e-01 5.196418166160583496e-01 -1.189132213592529297e+00 -4.199064075946807861e-01 2.096330933272838593e-02 -1.244793087244033813e-02 5.341719388961791992e-01 -3.221651315689086914e-01 -2.684401571750640869e-01 -1.209864854812622070e+00 3.875071704387664795e-01 5.467517971992492676e-01 -9.962377548217773438e-01 3.471478521823883057e-01 1.022170543670654297e+00 -2.396108657121658325e-01 -3.621277511119842529e-01 1.504680365324020386e-01 6.361387968063354492e-01 -3.087286353111267090e-01 -4.835324883460998535e-01 -4.776825010776519775e-01 -2.100958675146102905e-02 5.812069773674011230e-02 -3.904345929622650146e-01 -4.491602480411529541e-01 2.721928954124450684e-01 2.370264679193496704e-01 1.429715305566787720e-01 -1.633439779281616211e+00 -1.444011688232421875e+00 -8.591087460517883301e-01 1.402446031570434570e+00 4.770055115222930908e-01 3.029820024967193604e-01 -1.549554914236068726e-01 2.043283581733703613e-01 1.285621166229248047e+00 1.778911709785461426e+00 -1.336187005043029785e+00 -7.559771090745925903e-02 6.188398003578186035e-01 -8.402081727981567383e-01 -4.373975098133087158e-02
-5.264338850975036621e-01 5.588763207197189331e-02 -2.539439201354980469e-01 -2.397109746932983398e+00 7.096911668777465820e-01 -1.466536801308393478e-02 -2.718625545501708984e+00 4.119747877120971680e-01 -1.948201656341552734e-01 8.948653936386108398e-01 8.898157477378845215e-01 -3.311992585659027100e-01 3.615535259246826172e+00 2.376146078109741211e+00 1.769808888435363770e+00 -3.009783506393432617e+00 -1.515004336833953857e-01 2.724958896636962891e+00 1.736295968294143677e-02 -4.619619548320770264e-01 -6.246399879455566406e-01 8.506147861480712891e-01 8.152202367782592773e-01 -1.860375255346298218e-01 9.874610900878906250e-01 -1.488658905029296875e+00 1.608453631401062012e+00 9.997689723968505859e-01 7.652918696403503418e-01 -1.448670148849487305e+00 6.422449648380279541e-02 4.733889102935791016e+00 7.504160404205322266e-01 -3.041824698448181152e-02 -1.182021796703338623e-01 -3.053204774856567383e+00 -9.307749569416046143e-02 -3.886243104934692383e-01 3.113966226577758789e+00 1.972025990486145020e+00 -4.235989972949028015e-02 1.086030840873718262e+00 -2.385707050561904907e-01 7.687903642654418945e-01 2.494880676269531250e+00 -4.298402965068817139e-01 7.739840149879455566e-01 8.536638617515563965e-01 8.420817255973815918e-01 2.219955682754516602e+00 1.643881320953369141e+00 9.806544333696365356e-02 -4.417802020907402039e-02 -1.890969276428222656e-01 -2.403752088546752930e+00 1.905388951301574707e+00 9.147157073020935059e-01 -6.848801970481872559e-01 -3.335254907608032227e+00 -7.604128867387771606e-02 -6.236062943935394287e-02 -7.655195146799087524e-02 -4.230217933654785156e-01 -2.562395095825195312e+00 -4.256055355072021484e-01 -3.494966924190521240e-01 -3.802867531776428223e-01 2.203468561172485352e+00 -5.285211205482482910e-01 -5.325013399124145508e-01 -6.212280988693237305e-01 -1.443890780210494995e-01 5.553755760192871094e+00 -2.978872954845428467e-01 -6.979646086692810059e-01 -3.147087991237640381e-01 1.220402359962463379e+00 -2.141278684139251709e-01 -5.113294348120689392e-02 -2.607136070728302002e-01 2.362480163574218750e+00 3.423761129379272461e-01 -4.429365694522857666e-01 -7.566516995429992676e-01 1.295556902885437012e+00 2.918552756309509277e-01 6.758413910865783691e-01 -1.861850976943969727e+00 2.498749732971191406e+00 -3.229712486267089844e+00 -1.121790766716003418e+00 -5.042077302932739258e-01 -2.849589586257934570e-01 -9.646053314208984375e-01 1.258699178695678711e+00 -9.828580021858215332e-01 1.122206807136535645e+00 2.386818170547485352e+00 -4.270589053630828857e-01 6.257309019565582275e-02
